{
  "labels": {
    "labels": [
      "hipHop",
      "ternOP"
    ],
    "rows": 2
  },
  "mlp": {
    "layers": [
      {
        "activation": 1,
        "biases": [
          1.4050405661080552e-156,
          -8.347185404503029e-75,
          -5.222602690565282e-11
        ],
        "cols": 3,
        "rows": 14,
        "weights": [
          [
            -0.5940792266736534,
            -0.5305666378865818,
            -0.0998076636724864
          ],
          [
            -0.43779834449975374,
            0.03528908814809214,
            0.23904995101271226
          ],
          [
            0.30370437809180795,
            0.20335577055126317,
            0.4875337940890556
          ],
          [
            -0.04913096433408758,
            -0.5849417175911912,
            0.311537688195004
          ],
          [
            0.03893327953655129,
            -0.13852284834549033,
            -0.28224797630330484
          ],
          [
            -0.33392624536008797,
            -0.5146681130907247,
            -0.5376922782271276
          ],
          [
            -0.5381911923999397,
            -0.09804127158206047,
            0.2805070753685995
          ],
          [
            0.21252295191886142,
            0.2219190506866012,
            -0.20408816071293873
          ],
          [
            0.21303587484440428,
            0.10572000516840294,
            0.15759807353180852
          ],
          [
            0.5164921234382708,
            0.5114347651946946,
            0.3046610550563587
          ],
          [
            -0.13842015808236316,
            0.41130755531632673,
            0.5834393501963636
          ],
          [
            0.023070087715927345,
            0.0319961555547737,
            -0.16000154953481083
          ],
          [
            0.39324542911629995,
            -0.4848179530375458,
            -0.3005625913683185
          ],
          [
            -0.5530107374328638,
            0.18288297880527643,
            0.5733551761991226
          ]
        ]
      },
      {
        "activation": 1,
        "biases": [
          0.05105430413579766,
          -0.034257798343862625,
          -0.05828317011460928
        ],
        "cols": 3,
        "rows": 3,
        "weights": [
          [
            0.4453208015511374,
            -0.8546282341026832,
            -0.45458006647163074
          ],
          [
            0.5067116699678411,
            0.2632694362026031,
            -0.12717718869781924
          ],
          [
            0.2684670836064997,
            0.744316314458917,
            0.532115121082351
          ]
        ]
      },
      {
        "activation": 1,
        "biases": [
          0.8352598361048459,
          -0.21447904436336204
        ],
        "cols": 2,
        "rows": 3,
        "weights": [
          [
            0.35870272190366687,
            -0.4033653744799556
          ],
          [
            -0.19711826961783163,
            -0.8029995974625235
          ],
          [
            -0.10756125860481053,
            -0.11099417936726755
          ]
        ]
      }
    ]
  }
}
