{
  "labels": {
    "labels": [
      "row0",
      "row1",
      "row2",
      "row3"
    ],
    "rows": 4
  },
  "mlp": {
    "layers": [
      {
        "activation": 1,
        "biases": [
          1.4068629229753635,
          0.8952456513071102,
          -1.128525762825946,
          0.936381455520237,
          0.054286120163492095
        ],
        "cols": 5,
        "rows": 4,
        "weights": [
          [
            -2.8485054370816743,
            -1.4937228161852383,
            1.9978870581642179,
            -0.8360450073507408,
            0.2779714676873432
          ],
          [
            -1.2268549859504345,
            -1.1109235664336126,
            1.2864220172403344,
            -1.200168259688584,
            -0.7511536814893028
          ],
          [
            1.1991059526676058,
            -0.49641323254534137,
            -0.7421945829935458,
            -0.23294033980128165,
            -0.08332351093620634
          ],
          [
            2.121043080551975,
            1.4305903226523105,
            -1.6487732321750515,
            1.481135424819467,
            -0.5459996098128869
          ]
        ]
      },
      {
        "activation": 1,
        "biases": [
          -2.300840754827246,
          -1.027617799459373,
          -1.8868700635480244,
          -0.13081029414598466
        ],
        "cols": 4,
        "rows": 5,
        "weights": [
          [
            -0.1550016136794999,
            3.2432723976038296,
            1.7365503130826176,
            -4.648395720500587
          ],
          [
            2.4552560543255475,
            -3.2060900065002844,
            -0.6398426880477575,
            -0.530884400360303
          ],
          [
            -2.688905403094282,
            -3.290337755973407,
            1.0477107093981006,
            2.188492755770164
          ],
          [
            2.260811544850287,
            -1.1393908730783666,
            -2.7811439230170083,
            0.0014224977942872846
          ],
          [
            0.7439885615249209,
            0.12412206129807403,
            0.30075675097387305,
            -0.28298505032636473
          ]
        ]
      }
    ]
  }
}
