{
  "labels": {
    "labels": [
      "ambient",
      "glitch",
      "hipHop",
      "impro",
      "metal",
      "rock"
    ],
    "rows": 6
  },
  "mlp": {
    "layers": [
      {
        "activation": 1,
        "biases": [
          -6.250326645058021e-203,
          1.5482828435934692e-85,
          6.5029013702960165e-06,
          0.0,
          0.0,
          -4.865749097686201e-16,
          0.0,
          -4.604386609862408e-127,
          9.996437080930187e-07,
          2.0366140450474108e-05,
          0.0
        ],
        "cols": 11,
        "rows": 14,
        "weights": [
          [
            -0.4898902803121459,
            -0.4375164578870427,
            -0.07844421057499364,
            0.21816174712949885,
            -0.0132102128069665,
            0.0006928085692276948,
            0.36080702881795584,
            -0.22602199018960464,
            0.05483685045784702,
            0.44947937805764576,
            0.08828804640501918
          ],
          [
            -0.36101776341860664,
            0.029100127573263242,
            0.2105408743746807,
            0.24823700762695233,
            0.38962199802624187,
            -0.11351704801804666,
            0.1269261093488135,
            -0.08289600853292461,
            0.3907665141206452,
            -0.20095032169400573,
            0.4462076996644983
          ],
          [
            0.2504410459670093,
            0.16769146431234547,
            0.4020785509805376,
            0.14845727787998075,
            0.4009404190561174,
            -0.21841433746960306,
            0.23145180991794628,
            0.0365502822073724,
            0.12230192520547081,
            -0.3125428211809527,
            0.055011756245559554
          ],
          [
            -0.040514431087579426,
            -0.48235529729173937,
            0.2573353560476764,
            -0.4186806186654846,
            -0.4305572689140832,
            0.4054566318080022,
            0.22085775123732299,
            -0.03143443071276372,
            0.3344943577706465,
            -0.17803108544416424,
            -0.3447396558086933
          ],
          [
            0.03210520477617991,
            -0.11422886705797465,
            -0.22226434203480872,
            0.12897515671331733,
            0.39647743962521986,
            0.029146374285288386,
            0.4893667806169732,
            -0.2084884453663926,
            -0.3301914702340956,
            0.46448725904111837,
            0.4735403511769999
          ],
          [
            -0.2753626361571124,
            -0.4244061984820786,
            -0.44361070575112627,
            0.3769344661684056,
            0.00443151371331831,
            -0.03483583483811756,
            0.38072146067015733,
            -0.3151731959029007,
            -0.28146735651873644,
            0.14835573744949188,
            -0.08939001926536617
          ],
          [
            -0.4438038266084136,
            -0.08084690368054048,
            0.23159944635789623,
            -0.22269784201919093,
            0.015962799132937078,
            0.4320703494696711,
            -0.26141456343970726,
            -0.3392837457077154,
            0.2104179785355821,
            -0.34179795414017194,
            -0.35094351836501586
          ],
          [
            0.17525091572590581,
            0.18299913726353123,
            -0.16769207018910753,
            -0.06230384384626179,
            -0.17731078176199522,
            -0.4408258668039163,
            -0.18976507525152653,
            0.07020708966591066,
            -0.3604967354725352,
            0.1926906260554695,
            0.06358746107102366
          ],
          [
            0.17567388280586863,
            0.08717894961003406,
            0.13127590286550694,
            0.2611104899651965,
            0.47680994471768334,
            0.256230601125236,
            -0.1459746487090281,
            0.29629589058196737,
            -0.3994804903793211,
            -0.09045777903038585,
            -0.24286552988465127
          ],
          [
            0.42591031594710904,
            0.42173991150213846,
            0.2512354997332333,
            -0.021818325284367387,
            -0.005901619340797323,
            0.26474530629125703,
            0.013005518996286816,
            -0.45751201563229266,
            -0.22085769767311886,
            -0.10997374606150806,
            -0.011253397446498748
          ],
          [
            -0.11414418649765548,
            0.3391728990367588,
            0.4812300462157531,
            -0.2569275339996743,
            -0.22913065234042812,
            0.3211940457920045,
            0.0892727143329262,
            0.03375381300978511,
            -0.48709081468211657,
            7.111051207268788e-05,
            -0.035242740443055316
          ],
          [
            0.019024081689006586,
            0.026384705793205038,
            -0.12915679075601078,
            -0.22054535433898736,
            -0.4009982304198969,
            -0.36706546790421074,
            0.3389913130727304,
            -0.0014891731255209117,
            -0.07535882323142212,
            -0.242626436442778,
            0.451779127098588
          ],
          [
            0.32427848820756944,
            -0.3997911259139088,
            -0.24781747070352889,
            -0.13789159585587174,
            0.43871757498466296,
            -0.4743508399523883,
            -0.08614290029214369,
            0.4461606043153751,
            -0.4635489602417567,
            0.08561869488742754,
            -0.3664134818838051
          ],
          [
            -0.45602433650728236,
            0.15080916774835013,
            0.47281556122874474,
            -0.3267548767497288,
            -0.417638907247629,
            0.1846477308970398,
            0.3346107233557438,
            0.24327612064522172,
            0.205572822513825,
            0.33864413825436235,
            -0.29417666420309907
          ]
        ]
      },
      {
        "activation": 1,
        "biases": [
          0.05947292021689942,
          -0.0945355168089858,
          0.0008399696911827811,
          -0.12530176276514696,
          -0.12247561162569369,
          0.13108115310352902,
          -0.049996279658549234,
          0.132222826839088
        ],
        "cols": 8,
        "rows": 11,
        "weights": [
          [
            -0.2031458290422369,
            0.4514420400434075,
            -0.2775395634761076,
            0.4595885229376613,
            -0.06818683316578135,
            -0.09662364343565169,
            0.4338615206800551,
            0.4383431538962628
          ],
          [
            0.1452859893476309,
            -0.08260977606893956,
            -0.41010166610508714,
            -0.28083458790557414,
            0.36492835870600465,
            0.08622205965883133,
            0.028083419250852545,
            0.04939363288492742
          ],
          [
            -0.19825553881147623,
            -0.22298434109410697,
            0.24193052816695468,
            0.02095408896347595,
            0.5076503951356138,
            0.3312951947818114,
            -0.2597196419044439,
            -0.4530631718654627
          ],
          [
            0.22946745014443173,
            0.4083962061184267,
            -0.04939030660195089,
            -0.15760011717503594,
            0.10478504224361163,
            0.06369042402708325,
            -0.5386761789425437,
            0.07641816287550288
          ],
          [
            0.19617776363266828,
            -0.19533496287137428,
            -0.16828029156720897,
            -0.11860793696572203,
            0.42502866430477737,
            0.3892952543014763,
            0.18986970121583965,
            0.6822187955342828
          ],
          [
            0.34062464137792836,
            -0.4145083062915874,
            -0.0536099816342046,
            0.11283282116148254,
            0.5107182605274105,
            0.41501661314169846,
            -0.012426816097160445,
            -0.31971445127850034
          ],
          [
            -0.22392847751895237,
            0.3388958343861647,
            0.3480637098364101,
            0.2316065322905129,
            0.2723174132893962,
            0.373442214439682,
            0.1384587204004494,
            0.07155839557742677
          ],
          [
            -0.026488366620899064,
            -0.45835727013441446,
            0.48516014226706466,
            0.2875433066449408,
            -0.23678814587201427,
            0.3379804697991547,
            0.20460554702294936,
            -0.20709888941239957
          ],
          [
            0.2443339581594652,
            -0.19034174460780762,
            0.3420476651974511,
            -0.8906044815289003,
            0.6872570528638594,
            -0.09273032640137353,
            -0.7733547869576832,
            0.014445419939822242
          ],
          [
            -0.13999350370629102,
            -0.33485946635959507,
            -0.6447450845228698,
            0.33395244426867304,
            -0.029267958376332018,
            0.4832343622385183,
            0.3430486516078985,
            0.41862135078716867
          ],
          [
            -0.4705876159912118,
            -0.2458813827871292,
            0.20268436570162046,
            0.02388365687745205,
            -0.5681773992542798,
            -0.4094123244056434,
            0.36122034018156707,
            0.06448020747299266
          ]
        ]
      },
      {
        "activation": 1,
        "biases": [
          -0.40172688323627637,
          -0.055146013981588554,
          -0.41635149778729574,
          -0.3531915831904023,
          -0.7571436802921089,
          -0.6177198492826241
        ],
        "cols": 6,
        "rows": 8,
        "weights": [
          [
            -0.24304256261089183,
            -0.46881534652587475,
            -0.5601481605936359,
            -0.5240523393687586,
            -0.06820082476748446,
            -0.6572137472764688
          ],
          [
            -0.2335918425554641,
            -0.22567452039904912,
            0.258587220359138,
            -0.4048539397676056,
            -0.6736594617378729,
            0.31571165047202204
          ],
          [
            0.035843275529245745,
            0.29613733755723165,
            -0.1641806675988625,
            -0.9347326478863789,
            -0.060708053703045474,
            -0.6872353457783933
          ],
          [
            -1.0282012190141265,
            0.06488818456979335,
            0.31980371439421995,
            -0.14247211506132598,
            -0.15197089491390378,
            0.006997776326564576
          ],
          [
            0.8007139421671643,
            -0.4766516853261007,
            -0.8931960671053336,
            0.15643057757626283,
            -0.644703888469701,
            -0.9191830945139177
          ],
          [
            -0.5330578673681244,
            -0.4485375449060483,
            -0.7768178446602705,
            0.31325097809084695,
            -0.8127613858108114,
            -0.5495280001791062
          ],
          [
            -0.6958539927697964,
            0.15634785525582653,
            0.31197850269678956,
            -0.05292052742971265,
            -0.9353579775947064,
            -0.2784297981850795
          ],
          [
            -0.2619811160090827,
            0.08973967509858156,
            -0.05222950795305145,
            -0.4711986644260548,
            -1.2322189407606092,
            -0.890078276237897
          ]
        ]
      }
    ]
  }
}
