{
  "labels": {
    "labels": [
      "ambient",
      "freeImpro",
      "hipHop",
      "metal",
      "rock"
    ],
    "rows": 5
  },
  "mlp": {
    "layers": [
      {
        "activation": 1,
        "biases": [
          9.274600061270213e-05,
          -0.00013901835857188375,
          -3.1162441874416394e-06,
          -1.1365842252105468e-65,
          8.5526530018929e-110,
          0.0,
          -0.0001240721016227466,
          0.0005461228113040317,
          9.495890281452688e-16,
          -1.2639270733633519e-06,
          6.200014615659865e-05,
          -0.00041919808843436673
        ],
        "cols": 12,
        "rows": 14,
        "weights": [
          [
            -0.20467820775556667,
            -0.32207522472291666,
            0.2497325101000146,
            -0.35036147437018267,
            -0.1251478310168744,
            -0.0943158938136421,
            -0.3397490567378773,
            0.43186914349216443,
            0.08146090727300531,
            0.17470565204904417,
            -0.0015871364044986183,
            0.20958769125259535
          ],
          [
            0.6536056151055541,
            -0.08986796963251337,
            0.019470335997668432,
            0.027428288614428774,
            -0.23642382459407954,
            0.10149534447976948,
            0.225559982507793,
            0.8148059889302942,
            0.017753494243107903,
            -0.18822844987167905,
            0.14520661950886238,
            -1.0146844406621323
          ],
          [
            -0.24529917800033735,
            0.18704140313024567,
            0.05176886490798867,
            -0.18183621594632954,
            0.16504487434811474,
            0.4674166473076008,
            -0.24425463602601147,
            -0.206738599513147,
            -0.4161572834266674,
            -0.4714053022476998,
            -0.050855854272639195,
            -0.1214739386406379
          ],
          [
            0.3126195254747177,
            0.269842942257575,
            0.08425704271890122,
            0.08466211393231798,
            0.1693229570451217,
            -0.3358906863387343,
            0.32135282896808076,
            0.2955690827552832,
            0.04229565420731351,
            -0.3806632717810811,
            -0.33024440150801737,
            -0.04850745628313006
          ],
          [
            -0.03404130590948726,
            0.039676995212312216,
            -0.168571482089796,
            0.017374148464820417,
            0.013389633352390856,
            0.1634252570438885,
            -0.16870173496784488,
            -0.36941481106671514,
            -0.10594263340493447,
            0.0028040088664278502,
            -0.023806483968573402,
            -0.24860234703608863
          ],
          [
            -0.10063695573646024,
            0.247526884580687,
            0.19513225742361293,
            -0.06643929224210875,
            0.21963981129146218,
            -0.15005523583007876,
            -0.038544968398172515,
            -0.4933834469321024,
            -0.2730256514914818,
            0.26508472527651517,
            0.3187461366100311,
            0.24245002951908043
          ],
          [
            0.10051045342491031,
            0.15771364423658435,
            -0.3430842574783616,
            -0.23169638405386492,
            0.212106860736121,
            0.040073833988600496,
            0.30022891213947644,
            0.01509725608268372,
            -0.10974917875720495,
            -0.2684009678987907,
            0.19022450229139437,
            0.15813020812215836
          ],
          [
            -0.28713129319867564,
            0.07640312185174743,
            -0.3259481688446007,
            -0.12468256119801235,
            0.42730469074683863,
            0.021912942212297455,
            -0.4966857223771892,
            -0.36358483123050384,
            0.12188446224616928,
            -0.4276727259369011,
            0.10746029311217817,
            0.046672283506872574
          ],
          [
            0.3615587565728033,
            -0.5434393168498115,
            -0.015818064262885345,
            -0.10278536162315903,
            -0.037760776042373725,
            0.31632231799396526,
            -0.4060918955211212,
            0.025174743394377364,
            0.15281349668193858,
            -0.4125148758593777,
            0.2389525874720668,
            -0.6092583972370388
          ],
          [
            -0.3287528218237332,
            0.09401536875344656,
            0.3460893988263584,
            -0.0510495511540952,
            0.42289504680074824,
            -0.466020419538659,
            0.1986614057997794,
            0.38827067697610684,
            0.20110800351538263,
            -0.32639847411067385,
            -0.16203044524231208,
            -0.36315507351085025
          ],
          [
            0.470231063329996,
            -0.2680568488471203,
            0.30090940423574436,
            -0.023158159220891653,
            -0.17143952003247112,
            -0.21693227181957322,
            0.19692011097178572,
            0.28723985071550745,
            0.03714456525645577,
            0.21498465671071182,
            -0.4223799783016972,
            0.44532196153927867
          ],
          [
            -0.11065050063905728,
            -0.6160317533341233,
            0.04734467444120783,
            -0.10776827916438134,
            -0.03801361700445214,
            0.13736967026678706,
            -0.33324140348034564,
            1.1314766270636487,
            -0.21109157459430725,
            -0.1951168682567255,
            0.6856130563220779,
            -0.6325471464270492
          ],
          [
            -0.25547498498694327,
            0.19103136815643496,
            0.2296061518184341,
            -0.21204838022142455,
            0.01647268847039572,
            0.04432661214354443,
            0.07840882703911103,
            -0.058042417767147005,
            0.303537806570928,
            -0.43177476018039995,
            0.04122653830352551,
            -0.14461189393067111
          ],
          [
            -0.38257806735095135,
            -0.3676899853767425,
            -0.17677951778327644,
            -0.4051916030733481,
            0.1550253467497212,
            0.40145510289585357,
            0.2416216796228725,
            -0.47440687525015846,
            -0.12306519249046945,
            -0.02132574624003723,
            -0.47876060129732384,
            0.10958752276712776
          ]
        ]
      },
      {
        "activation": 1,
        "biases": [
          -0.050378034243224526,
          -0.03689503392453531,
          0.01515267797756836,
          -0.06012531438789963,
          0.1952617681006615,
          -0.012932549067538008,
          0.46848080007996223,
          -0.020123367573669573
        ],
        "cols": 8,
        "rows": 12,
        "weights": [
          [
            0.07264222287683805,
            -0.23027774731851747,
            0.644410028719364,
            0.6048620495062105,
            -0.5402327638838575,
            -0.40985186639529614,
            -0.09426861428477272,
            0.4400079628645821
          ],
          [
            -0.4133592422936342,
            0.20949963180780043,
            -0.511938808950426,
            -0.43643075359652017,
            0.8158977000408425,
            0.47744715548727046,
            0.27279709692322474,
            -0.2329912632811019
          ],
          [
            0.1330310361869519,
            0.33757018850553727,
            -0.16036067969047627,
            0.0944450740474196,
            -0.3424065578905413,
            -0.14765981555181723,
            -1.2528404626990959,
            -0.5265739411177908
          ],
          [
            0.4973632975432665,
            -0.05274433504422439,
            0.20530228602955408,
            0.2947996790777368,
            -0.1408022201230705,
            0.1325988520009362,
            0.5227247268884674,
            -0.41205302346859896
          ],
          [
            -0.15673083416497055,
            -0.25894104492084047,
            -0.1365909838298892,
            -4.893220981065828e-05,
            -0.3014651861289987,
            0.4535416487199407,
            -0.035337568393649654,
            0.028851658577384864
          ],
          [
            0.31999375494544846,
            0.14440491755898216,
            0.3834485106855742,
            0.2129161503350016,
            -0.09646457919383428,
            -0.5409978699267485,
            0.2812211436101701,
            -0.39248360704356133
          ],
          [
            0.5182372872050457,
            -0.4442260633988939,
            -0.6330197665182153,
            0.12730855381567588,
            0.5219744578681864,
            0.07455993878240731,
            0.28819981035691156,
            0.029495390469673248
          ],
          [
            -0.39551557623565203,
            -0.1453045608972211,
            0.6937259601044021,
            0.09788573923217936,
            -0.04529838972936285,
            0.4701569179452838,
            1.3511563054682623,
            -0.3091527888702754
          ],
          [
            -0.2721878792276708,
            -0.42319710081553896,
            -0.515258721623331,
            0.2812776362561804,
            0.2674027839662217,
            -0.003744230074050697,
            -0.3227824237181506,
            0.3741778081937812
          ],
          [
            -0.08291707115501912,
            0.05132528270012153,
            -0.4598745594275574,
            -0.5079411314701342,
            -0.37270988806416244,
            -0.48897100570456403,
            -0.35987275494409177,
            -0.14399288987024175
          ],
          [
            0.3157068218385096,
            -0.19215779180566206,
            1.0884010069154237,
            0.20256404318515814,
            -1.6280223896427979,
            -0.046323771025011035,
            -1.2885653368120438,
            -0.15705056603723971
          ],
          [
            0.4080732874200522,
            -0.6428541516152254,
            -0.23447655428096645,
            -0.5582103044765997,
            0.7604983429550856,
            0.014048531338334554,
            1.3508451612938357,
            -0.21282832884043265
          ]
        ]
      },
      {
        "activation": 1,
        "biases": [
          -0.01627944989732446,
          0.1561491170577729,
          0.028357672221599694,
          0.13181857459095586,
          0.020042309659959366
        ],
        "cols": 5,
        "rows": 8,
        "weights": [
          [
            0.28597986232022915,
            0.39048677725289554,
            -0.1965076956618639,
            -0.17716172728103396,
            -0.04557807075927485
          ],
          [
            0.08103268295442892,
            -0.1754069996336591,
            -0.220725329594272,
            0.32669542254030803,
            -0.6353798418265535
          ],
          [
            0.5641061914506076,
            0.5885920255977339,
            -0.9377381199199737,
            -0.022432612710299903,
            -0.6072130602555398
          ],
          [
            0.3830305780208897,
            0.2989283569538189,
            -0.6166602021019956,
            0.048252736676638854,
            0.04207278357748718
          ],
          [
            0.2859621908448353,
            -1.1700471978907527,
            1.3998130004260458,
            -1.0631726303660305,
            0.5303803812221823
          ],
          [
            0.2595169861378034,
            -0.47354318633444786,
            0.283860490629873,
            -0.0916994242341888,
            -0.3128970456655045
          ],
          [
            -0.3336854471652941,
            -1.781321421539368,
            1.3451330844877571,
            -0.9905264266378243,
            1.2293375702442708
          ],
          [
            0.5586822428532677,
            -0.10713979508111841,
            0.5153294504077955,
            0.42277183980265903,
            -0.4384960534094608
          ]
        ]
      },
      {
        "activation": 1,
        "biases": [
          -0.296261671721909,
          -1.18430999521009,
          -0.48464886399558355,
          -0.3067469766100473,
          -0.8280623407158901
        ],
        "cols": 5,
        "rows": 5,
        "weights": [
          [
            0.26223638213662087,
            -1.1369798589390747,
            -0.05034635690524195,
            -0.9432581681680066,
            0.019601497653623932
          ],
          [
            1.7500402240103952,
            -0.8390396312532306,
            -0.9620470778907615,
            -0.9044295216486312,
            -1.0834839933163307
          ],
          [
            -2.0224090170989015,
            -0.5957760209488914,
            0.6807322059864099,
            0.4982876601326782,
            -0.5516667606211738
          ],
          [
            0.853573764056346,
            0.09756777319140006,
            -0.3129216082084313,
            -0.9343805992428105,
            -1.1209404634759983
          ],
          [
            -1.5104526198149866,
            0.009011169985129098,
            -0.5465944445406248,
            0.04618254707699398,
            0.15158061594792605
          ]
        ]
      }
    ]
  }
}
