{
  "layers": [
    {
      "activation": 2,
      "biases": [
        -0.018895975784589986,
        -0.009223551416025435,
        -0.574935731721325,
        0.0,
        0.0,
        0.20399753056418066,
        0.0,
        -0.21138065167275108,
        0.37348689240809435,
        0.0,
        0.0,
        0.31152883118232705,
        -0.3321484656275086,
        -0.19779157817876597,
        -0.48302370732137695
      ],
      "cols": 15,
      "rows": 19,
      "weights": [
        [
          -0.31432207549012336,
          -0.37079296591941147,
          -0.32795275842255456,
          -0.02682259547342763,
          0.1466301040424606,
          -0.17935708333664283,
          0.0409466693366433,
          0.15240265313689746,
          -1.4782717502055163,
          0.005729906599978553,
          0.3985319230781381,
          -0.20307075292416982,
          0.13289944386831598,
          0.0067306216340588245,
          -1.0727901007472953
        ],
        [
          0.24063570907710813,
          0.01502771618452472,
          -0.18195211232736894,
          0.3628809519268718,
          0.19926676914330882,
          -0.05150604285941262,
          0.09303824959961328,
          -0.1095806363779538,
          -0.37112050405934843,
          -0.31678557209320335,
          0.3063332514909562,
          0.026806591709923354,
          0.013854716488933458,
          0.1274002016419117,
          0.28672118523153345
        ],
        [
          0.3576297804576153,
          0.3557449205039064,
          -2.0848852512760594,
          0.16028105933985135,
          0.16674003020265818,
          0.3509046274721354,
          0.14111919502544865,
          -0.4882347652788658,
          0.0074256788351181055,
          -0.0701746791694067,
          -0.006855145685370899,
          0.7192505895976388,
          -0.49669238601310434,
          0.864360468648363,
          0.10983909951225931
        ],
        [
          -0.28600324485370954,
          -0.23948533112550074,
          0.8188808742402802,
          0.2649946886025229,
          -0.40092857438863605,
          -0.2681851324598995,
          -0.004095533927185218,
          0.16573693001804307,
          0.3753875956452578,
          0.1701099849771363,
          -0.11141062692613483,
          0.8750888680183073,
          0.8266929230669319,
          -0.1376151590013326,
          -0.614027524100271
        ],
        [
          0.07920625028237545,
          -0.25289351747940436,
          0.8115260781090528,
          0.034896083114453504,
          -0.25878540702242875,
          -0.8615917028436547,
          0.06014141997643457,
          0.38443601227849455,
          0.7518597911424141,
          -0.05335805766134536,
          0.25617763151228623,
          -0.6731415006289676,
          -0.17955571650029012,
          0.0779175841801495,
          0.1884436221201178
        ],
        [
          -0.37546428874171073,
          -0.34985899042309987,
          0.009337355596728813,
          0.061169713689425254,
          0.14366118184423077,
          1.1121276570500258,
          0.07468089251868791,
          -0.8157001836680697,
          0.263231528912873,
          -0.3295653194999176,
          -0.28380555913552374,
          -0.25867968452581314,
          1.0899321281717436,
          0.28564051279394004,
          -0.30637963893623804
        ],
        [
          -0.1373715327009663,
          0.16316446330408432,
          0.17712604453134698,
          -0.28631573200058785,
          -0.1294936419129351,
          1.6526627081796892,
          -0.04930676111955092,
          -0.44115493152503765,
          -0.054907368996486204,
          0.2236315628864364,
          -0.28601017454036104,
          -0.3142372870018107,
          -0.2618409041368406,
          0.06239111904212086,
          0.21277670932289777
        ],
        [
          -0.18369075680575464,
          0.16875383355704665,
          -0.1842215811554595,
          0.37408505358321653,
          -0.3643890511727046,
          -0.8101142093194653,
          -0.29303642532212837,
          0.383288562107361,
          -0.28701076115910545,
          -0.3361801324529914,
          -0.37158706530162927,
          0.2385532216469615,
          0.45574592254208435,
          -0.3027041112525169,
          -0.29347726711741456
        ],
        [
          -0.001106923649920667,
          -0.00918304304991627,
          0.005792487553616123,
          0.2699743041620877,
          -0.3018635715479514,
          0.8435389461033332,
          0.0019111543048798904,
          0.2451308347944155,
          0.34444978841753227,
          -0.04934708440702895,
          -0.2946877763653669,
          0.250357811671929,
          0.5542082724377146,
          -1.2696429171711796,
          -0.029778426410739037
        ],
        [
          0.2646083025865461,
          -0.20482300299968903,
          0.8323571711556653,
          -0.2895102489606592,
          0.35380946067117114,
          0.1678614423453012,
          0.19438448627754443,
          0.7377735584464586,
          0.20098226249110274,
          -0.13058186754825676,
          -0.02680016565210362,
          -0.7291063412047977,
          -0.8543271987438544,
          -1.9176143675308186,
          -0.0840893752806662
        ],
        [
          0.27152201995329683,
          0.1731019185841532,
          0.7526264039426003,
          -0.38557431807635933,
          -0.23385534977901645,
          0.047254201586111294,
          -0.3934872042687186,
          0.09891428913872302,
          0.425260450785949,
          -0.17050019485454299,
          -0.10030909149727821,
          0.1301066420381393,
          -1.0248839839553663,
          0.0009606621286224682,
          0.4974795724477554
        ],
        [
          0.18091468443714107,
          -0.1067966255276353,
          0.8141499010137592,
          -0.1313910445476081,
          -0.1007238861114274,
          -0.18850238214056728,
          -0.37671731367426503,
          0.1968540000510447,
          -0.03430532090427437,
          0.21644505142058656,
          0.32237639177451366,
          -0.09772883771608755,
          0.8399559691626455,
          0.2469485947768316,
          -0.14307325841207796
        ],
        [
          -0.15267815010090535,
          -0.2561265843318169,
          0.7408821620962873,
          -0.327649216283893,
          0.07226771510394367,
          -0.5592662049696082,
          0.018537017676662708,
          0.20622347894418327,
          0.42316180694738087,
          -0.13567907897051554,
          -0.06374058373000824,
          -0.6123531600941875,
          0.24393113763888666,
          0.5385426841705485,
          -0.21792636839162388
        ],
        [
          0.2443474483229559,
          -0.22932445819989622,
          1.6583427931897308,
          -0.3389756516434758,
          -0.27951315071944677,
          -0.962858428769872,
          -0.1506906129650388,
          0.1317628435996023,
          -1.2725026499771541,
          -0.14219142624317135,
          -0.07372646882111047,
          0.6006831561329152,
          -0.7539588272993859,
          -0.25375489446148597,
          -0.16468856172480506
        ],
        [
          0.10129283785273259,
          -0.058274972645979285,
          0.2261085760663288,
          0.01577270446267038,
          -0.3979542613807566,
          -0.7414358508779965,
          -0.39062814715455757,
          -0.23670251526893585,
          0.17324256167292557,
          -0.373365483585079,
          0.1271128883853034,
          0.05874091798848885,
          0.5965314011727609,
          0.2881080967247887,
          -0.28580479310148815
        ],
        [
          -0.3905128837643943,
          -0.032911171911016716,
          -1.8786624101830776,
          -0.40126002760985496,
          0.16057834181532607,
          0.2092212984891468,
          -0.21412326972769755,
          0.23138835184437642,
          -0.5372173857719542,
          0.061485948700777525,
          -0.1610371181436195,
          -0.2724427273324132,
          -0.020182161267493812,
          0.6749821084717245,
          0.669455906285431
        ],
        [
          -0.3959182163628875,
          0.2943776881906928,
          0.11610666147813624,
          0.05165665686871567,
          0.220412951405494,
          0.4737785209121264,
          -0.330034378233263,
          0.556071685057876,
          0.6509541088064,
          -0.01236219870267987,
          -0.3695542472812844,
          -0.3190734583583775,
          0.15292979585292235,
          0.6889162367220634,
          0.6555557897156574
        ],
        [
          -0.29161262071925814,
          0.3948172459888966,
          -0.2771924687468393,
          0.29983591194441694,
          0.17953998444060792,
          -0.33987023857594956,
          -0.09832611469874303,
          0.06723659755174055,
          -0.9592600079062449,
          -0.2499651429892573,
          0.264162674898762,
          0.1308769251784997,
          -0.3267408848676334,
          -0.07722932863040281,
          -0.7581397624418199
        ],
        [
          0.2151372430708364,
          -0.048290675280573715,
          0.36326935947256433,
          0.014205649813911807,
          -0.3551186038690193,
          -0.3394901846047723,
          0.04354542808287,
          0.24494429626489445,
          -0.1140407378940643,
          -0.3239061364180296,
          0.3340986210906185,
          0.43466756718398186,
          0.413938860256123,
          0.6521470909178647,
          1.361092825689565
        ]
      ]
    },
    {
      "activation": 2,
      "biases": [
        -0.04705846241006953,
        -0.4082279774017743,
        0.39903335247892785,
        0.045508752673002154,
        -0.698787168283004,
        -0.40208629090338555,
        0.07153362329813914,
        -0.03356041847157112,
        -0.039353595677739994,
        -0.5270973290969543,
        0.013521400142873858,
        -0.2281008178766284
      ],
      "cols": 12,
      "rows": 15,
      "weights": [
        [
          0.31441007786076336,
          0.4656259159913311,
          -0.1084891468595816,
          -0.22237711002017113,
          -0.07961058840166793,
          -0.19521860737410102,
          -0.3478840697353947,
          0.3158183361411182,
          -0.07941571077221955,
          -0.2864461672227657,
          0.07009402756682892,
          0.08598006734458485
        ],
        [
          -0.28465296633176196,
          0.1868605369215168,
          -0.15575536097651374,
          -0.19704727771696218,
          -0.1691292618851733,
          -0.30061363571740324,
          -0.37281266765362037,
          0.31578377241063293,
          0.3168950880953248,
          -0.31794857873524524,
          -0.4409806618847124,
          -0.43973821296665483
        ],
        [
          -0.3545884880642687,
          -0.6390399753675828,
          0.25781395911469884,
          0.33060818100319667,
          1.6431068412996548,
          -0.2111423967887176,
          -1.646372213524339,
          1.2721328682133342,
          1.4670999685223698,
          1.6708652969830016,
          -0.19721848482193002,
          1.1593313794903797
        ],
        [
          -0.2863240928272642,
          0.3293026909742879,
          -0.3347938901606443,
          -0.3541278371568572,
          0.20662153758743945,
          0.40928298165309795,
          0.3143116377882382,
          0.21726865382882485,
          -0.15751669568703336,
          0.09654849496145483,
          0.33477494998155627,
          -0.012056795957285156
        ],
        [
          -0.1516799129771213,
          0.30125311814510775,
          -0.19655176819453063,
          0.12692041226725703,
          0.3224820853548697,
          0.08430526088309105,
          0.07663632261839122,
          0.13484685372752878,
          0.024684350464271178,
          0.116194254440779,
          -0.1217758217387409,
          0.06537428605209396
        ],
        [
          0.026223205966277155,
          0.7681175219075909,
          1.2985464000278346,
          -0.42299228761981444,
          -0.962014653642792,
          -0.3221410957648034,
          0.08041210749705932,
          -1.8944695706000654,
          -0.5352756386868934,
          0.5908200681964954,
          0.13581777779417975,
          0.4178533280713839
        ],
        [
          -0.056315791216034174,
          -0.11855880591299664,
          0.33409864628399694,
          -0.03955473985715607,
          -0.03299167694598033,
          -0.034828577094435514,
          0.4544645257670942,
          0.032881588499559244,
          0.29991446662520893,
          0.16183148940302786,
          0.07205894832866594,
          -0.06175135041591482
        ],
        [
          0.0505251574144662,
          0.1765113302581618,
          -0.236894320710545,
          -0.08359466445923479,
          -0.0754030292546345,
          -0.5410743433491657,
          -0.16076263286029935,
          0.8420812980430256,
          1.2919467879725093,
          0.2661281135922945,
          -0.24782288739873193,
          0.05552011258274085
        ],
        [
          -0.07964269953605771,
          0.3085302190927048,
          -0.029319219463005017,
          -0.32456570746399455,
          -1.0779887346374089,
          1.7204566862300206,
          1.262760042746227,
          -0.304645627019061,
          -0.10394861247114227,
          0.10987835580221204,
          0.3297785605620624,
          -0.7526832047202324
        ],
        [
          -0.12425971201257265,
          0.131105066173642,
          0.09640165446311517,
          0.24122302373024024,
          -0.4017777645776336,
          -0.08882552048567187,
          -0.28785952447071467,
          0.34807376505225707,
          -0.24208649016735212,
          0.15777708242949232,
          -0.20789578169830886,
          -0.0172343022964443
        ],
        [
          -0.11095269103826887,
          0.13811700311935018,
          -0.4661359179900409,
          0.15648103127577534,
          -0.2805334455504545,
          -0.4238099782804914,
          0.44097361984877037,
          -0.054333783419355464,
          0.4161832254989332,
          -0.3624095778673303,
          -0.05409490035024051,
          -0.2145429306455107
        ],
        [
          0.04966380767782762,
          0.09312263245683733,
          0.6376330991817452,
          -0.4533418131508973,
          0.6693727314939136,
          0.3734622777798744,
          0.031306855308664644,
          -0.3145906178867139,
          -0.009395582997315298,
          -1.4432493777197708,
          -0.5752781896299954,
          -0.016753724773882175
        ],
        [
          -0.07680425503759722,
          1.3794512171341293,
          -0.9103120528028805,
          0.3212765379880303,
          0.4179243527635394,
          -0.49287166812295813,
          -0.5961358486561439,
          -0.0643589931432078,
          -1.2920095445379771,
          0.01863169561957526,
          -0.4545242175868468,
          -0.5180800873663208
        ],
        [
          -0.33673178850717156,
          -0.14381839880030245,
          -0.058053863601617996,
          0.10151373151959052,
          0.9898675247611034,
          0.2320957977486057,
          0.318493142661765,
          0.539417927831745,
          -1.7744993414911632,
          -0.5328590015075418,
          0.3979288821686814,
          1.5451708869755836
        ],
        [
          0.15996422446983335,
          -0.4833264238892201,
          0.22166731134751974,
          -0.17570771781493447,
          0.4087064308712589,
          0.9433855196906085,
          0.6527003088044459,
          -0.9925678248819347,
          0.7870693485322832,
          -0.4349386627893416,
          0.6232859213260002,
          -1.2092276198059089
        ]
      ]
    },
    {
      "activation": 2,
      "biases": [
        -0.2227997262880235,
        -0.17305496219588776,
        1.1582149065732956,
        0.5681786600592293,
        0.0968856608271556,
        0.9416947473111797,
        1.004744271182284,
        0.9545970518182393,
        0.24795380276963513,
        0.42010037002016803
      ],
      "cols": 10,
      "rows": 12,
      "weights": [
        [
          -0.3861358838814145,
          0.3402470465830922,
          -0.26824840674015693,
          0.17376160683034686,
          -0.06290942258258901,
          -0.3920873050775553,
          -0.25325742210641156,
          -0.40284173170558546,
          -0.5035897970354669,
          -0.43637259780904974
        ],
        [
          0.5360398684862551,
          -0.2524470893232083,
          -0.5465128625357606,
          -0.2954813750135362,
          1.224096483272356,
          -0.8556365095435999,
          0.02037300901982772,
          0.948266606123227,
          -0.09578213363997864,
          -0.23316588288847784
        ],
        [
          1.4113768769992023,
          0.5977796614598458,
          -0.27628768220701094,
          -0.33085082326214516,
          -0.39160727752750135,
          0.18761614987927663,
          -0.4112988926781581,
          -0.49112698565070156,
          0.49554098570975647,
          0.3655250441613068
        ],
        [
          -0.3107711876988861,
          0.022984888590131463,
          0.18785364577051156,
          -0.33480721950831455,
          0.2657715385214189,
          0.22108413430965584,
          -0.1695905471787734,
          -0.48963238706314527,
          -0.12244520972486417,
          0.4449384390870924
        ],
        [
          -1.087107392645754,
          0.7182225188097153,
          -0.8584882100305942,
          0.6540811174978817,
          0.1549376170736961,
          -0.7098915384633985,
          0.7729974592507408,
          1.1036891598973566,
          1.4803186969741489,
          0.17671266273721717
        ],
        [
          -0.2268620599958711,
          -1.3973648025233663,
          0.014559352972198594,
          -0.3206095023239189,
          -0.9467652917530905,
          0.007943975080928827,
          0.1742773489942323,
          0.34001760434010114,
          1.2700895299989514,
          0.9287786788715686
        ],
        [
          -1.132609827637975,
          0.9544038152051036,
          -0.2725181809036086,
          1.0126688842461045,
          0.2933869303426258,
          -0.6973005550595229,
          -0.7115919391201077,
          -0.16347085069502684,
          -0.9335302463851349,
          -0.9361829391037756
        ],
        [
          2.1300585114235626,
          0.3920944912638294,
          0.33746313766975544,
          -0.0125313979461547,
          -0.7763917224112844,
          -0.03713419950772541,
          -0.21061559132385219,
          0.9506197900807197,
          -1.1565973401022858,
          -0.13338616490645938
        ],
        [
          -1.1960754570467753,
          1.3570258521203975,
          -1.068778859410439,
          -0.14813912833234502,
          1.4737878253637633,
          -0.8264994275574288,
          0.4819735976721477,
          -0.6842334969741487,
          -0.7681715918904447,
          0.8284218872288167
        ],
        [
          -0.16718884965150574,
          -1.1919007097056322,
          0.7464567223737437,
          0.9077990542941021,
          -1.4315200850119376,
          0.17337256403017756,
          -0.2726643808484971,
          -0.2533267231715286,
          0.3487560835463192,
          -1.0033779713248947
        ],
        [
          -0.4939048952730169,
          -0.19389946155077475,
          0.4264933188190017,
          0.12340424646992745,
          0.6191291820019696,
          -0.04993659388450105,
          0.5358617824813569,
          -0.17530006199703238,
          -0.3571058935807432,
          0.005071561240899272
        ],
        [
          -1.020942149106052,
          0.6310109885382909,
          -0.6657915903048983,
          0.13171260420773578,
          0.8275228849803906,
          -0.2750125114307546,
          -0.667174586028976,
          -1.6746390275606264,
          0.6717692805591489,
          0.21040400341733506
        ]
      ]
    }
  ]
}
