{
  "layers": [
    {
      "activation": 2,
      "biases": [
        0.0,
        -0.005966450332688181,
        0.03663229976969601,
        0.0,
        0.0,
        0.06761962689007488,
        0.0,
        -0.06290960387911233,
        -0.06267378601295714,
        0.0,
        0.0,
        0.13527219943194396,
        0.01122678620517785,
        -0.0017136620106065906,
        0.011319466303128927
      ],
      "cols": 15,
      "rows": 19,
      "weights": [
        [
          -0.30746862079147724,
          -0.37016538686897654,
          -0.5446715434419298,
          -0.02682259547342763,
          0.1466301040424606,
          -0.19064220806179263,
          0.0409466693366433,
          0.09515268358622689,
          -0.3594513396857083,
          0.005729906599978553,
          0.3985319230781381,
          0.23340310422044475,
          0.36418676449594534,
          0.21070059391520934,
          -0.18979914342135534
        ],
        [
          0.2485684714150352,
          0.014605429133534728,
          -0.2120623454128381,
          0.3628809519268718,
          0.19926676914330882,
          0.09491382802813415,
          0.09303824959961328,
          -0.11146273538871028,
          0.2616535762710274,
          -0.31678557209320335,
          0.3063332514909562,
          -0.045682363874409805,
          -0.058328607370093946,
          0.4085433107252956,
          0.43099656435969574
        ],
        [
          0.37475240013732536,
          0.35746095105930825,
          -0.3613434816748638,
          0.16028105933985135,
          0.16674003020265818,
          0.4577442664270802,
          0.14111919502544865,
          0.20916419099552852,
          0.052418415260227634,
          -0.0701746791694067,
          -0.006855145685370899,
          0.4110651331780675,
          -0.28286522881030285,
          0.3483070738417552,
          0.24320893891773246
        ],
        [
          -0.27628486676684694,
          -0.23784528759032056,
          0.29441448651660035,
          0.2649946886025229,
          -0.40092857438863605,
          0.01408948381679633,
          -0.004095533927185218,
          0.22746876263271648,
          0.24482275641739765,
          0.1701099849771363,
          -0.11141062692613483,
          -0.19271265646194416,
          0.15517881118992877,
          0.01974215026817881,
          -0.025136513652403457
        ],
        [
          0.08905890328928905,
          -0.25122700189804387,
          0.08580284202758134,
          0.034896083114453504,
          -0.25878540702242875,
          -0.01195080696578725,
          0.06014141997643457,
          0.09339482446379455,
          0.2285935478528333,
          -0.05335805766134536,
          0.25617763151228623,
          0.1074989583824903,
          0.20817364866684981,
          -0.345473536937611,
          -0.35912561140865557
        ],
        [
          -0.3664782596676014,
          -0.34831533197577624,
          0.2731377077859826,
          0.061169713689425254,
          0.14366118184423077,
          0.279486084970181,
          0.07468089251868791,
          -0.004703638965685523,
          0.08122761952893402,
          -0.3295653194999176,
          -0.28380555913552374,
          -0.3275397461926118,
          0.3320653087848897,
          -0.11820974417214876,
          -0.017874226867235662
        ],
        [
          -0.12813262777265433,
          0.1648089278286355,
          -0.12324803081433454,
          -0.28631573200058785,
          -0.1294936419129351,
          0.36133568317513376,
          -0.04930676111955092,
          0.19662341615020817,
          0.2115629843943549,
          0.2236315628864364,
          -0.28601017454036104,
          0.3131956870741725,
          -0.34168016605279616,
          -0.11383237884347483,
          0.0032682810047005907
        ],
        [
          -0.17436175672751258,
          0.17038633735206665,
          -0.2128003733051034,
          0.37408505358321653,
          -0.3643890511727046,
          0.11536251034243017,
          -0.29303642532212837,
          0.13066971224643478,
          0.031652865163524856,
          -0.3361801324529914,
          -0.37158706530162927,
          0.05656215200406301,
          0.1891111032305339,
          0.15127798858316047,
          -0.022634847204952964
        ],
        [
          0.008114534515298845,
          -0.00751550416098577,
          0.03755183810306295,
          0.2699743041620877,
          -0.3018635715479514,
          0.19501661219423422,
          0.0019111543048798904,
          -0.04942815105247581,
          -0.2687733874332256,
          -0.04934708440702895,
          -0.2946877763653669,
          0.3610413238125421,
          0.3332885816042062,
          -0.31748311227734055,
          0.012960280511594978
        ],
        [
          0.2737574311044113,
          -0.20317031686507678,
          -0.03159778640708662,
          -0.2895102489606592,
          0.35380946067117114,
          0.049706882418645626,
          0.19438448627754443,
          -0.017376963442367797,
          -0.34732912029837826,
          -0.13058186754825676,
          -0.02680016565210362,
          -0.11398297099866733,
          -0.11870621074156427,
          -0.36003186929305253,
          0.20835955085204133
        ],
        [
          0.2809004894128944,
          0.17478455877112545,
          -0.062361440383543534,
          -0.38557431807635933,
          -0.23385534977901645,
          0.03448387587751607,
          -0.3934872042687186,
          -0.08169904938186055,
          0.3125287233809296,
          -0.17050019485454299,
          -0.10030909149727821,
          0.37976520381026574,
          -0.3463354062889599,
          -0.29253792256259287,
          0.3697259269223195
        ],
        [
          0.190250270484021,
          -0.10519924944716906,
          0.41868982332821447,
          -0.1313910445476081,
          -0.1007238861114274,
          -0.26415838457283275,
          -0.37671731367426503,
          0.13355437077582707,
          -0.22294395556435215,
          0.21644505142058656,
          0.32237639177451366,
          0.11133725890810069,
          -0.2795954812546538,
          -0.008084024020018444,
          -0.15859660370457138
        ],
        [
          -0.14330386142208254,
          -0.2544871821254561,
          0.41166766069728117,
          -0.327649216283893,
          0.07226771510394367,
          0.42613807858864916,
          0.018537017676662708,
          0.022707597859263153,
          0.11539146679425222,
          -0.13567907897051554,
          -0.06374058373000824,
          -0.04244517530693451,
          -0.059797646551535626,
          0.1795657271885174,
          -0.27267556583609887
        ],
        [
          0.2538016240411071,
          -0.227582848058876,
          0.3164837163115752,
          -0.3389756516434758,
          -0.27951315071944677,
          0.11106408127327073,
          -0.1506906129650388,
          -0.26118589628909317,
          -0.41747587571672806,
          -0.14219142624317135,
          -0.07372646882111047,
          0.32945972410149876,
          -0.3356208447994497,
          -0.21321797922855878,
          -0.31666381880093486
        ],
        [
          0.11070329276309357,
          -0.05663063714923773,
          0.3323230976182018,
          0.01577270446267038,
          -0.3979542613807566,
          -0.1400492441173834,
          -0.39062814715455757,
          0.009680536947908196,
          0.363117726526394,
          -0.373365483585079,
          0.1271128883853034,
          0.09431030698321492,
          0.14576572844553076,
          -0.08614923910302766,
          -0.3537009666124579
        ],
        [
          -0.381990203910912,
          -0.030398495448647683,
          -0.15391550271280208,
          -0.40126002760985496,
          0.16057834181532607,
          0.06010545650244236,
          -0.21412326972769755,
          -0.2542402401568801,
          -0.2226154659038082,
          0.061485948700777525,
          -0.1610371181436195,
          0.36535020613626146,
          0.09980239737595296,
          0.3614043802710389,
          0.39413523696478103
        ],
        [
          -0.385283895884447,
          0.2975129772597853,
          -0.2843169342533229,
          0.05165665686871567,
          0.220412951405494,
          0.20598788884162889,
          -0.330034378233263,
          0.1342403240227755,
          0.2864617738358745,
          -0.01236219870267987,
          -0.3695542472812844,
          -0.07240212601558264,
          0.3113817031453531,
          0.07772306542795558,
          -0.0430442604866531
        ],
        [
          -0.29127356757806433,
          0.3969613487335937,
          0.38794515483640857,
          0.29983591194441694,
          0.17953998444060792,
          0.12222120106863649,
          -0.09832611469874303,
          0.02711734240351122,
          -0.052597091902171905,
          -0.2499651429892573,
          0.264162674898762,
          -0.16020439248245588,
          0.3997556087213774,
          0.10750427579666719,
          -0.19774838939466338
        ],
        [
          0.2243794942005709,
          -0.04823504769413954,
          0.21262575256067526,
          0.014205649813911807,
          -0.3551186038690193,
          -0.25115633253130193,
          0.04354542808287,
          0.34200073824728955,
          0.33663477993892466,
          -0.3239061364180296,
          0.3340986210906185,
          0.2781431296665137,
          0.2015978232325747,
          0.3041558305762357,
          0.3772922727006454
        ]
      ]
    },
    {
      "activation": 2,
      "biases": [
        -0.05555850697062956,
        0.036694575656907695,
        0.2022323523781195,
        0.0,
        0.0,
        0.07206818530608451,
        0.001774145631167355,
        0.043593494455372354,
        -0.1320941801617507,
        -0.005958424080496647,
        0.0,
        0.08627653885744481
      ],
      "cols": 12,
      "rows": 15,
      "weights": [
        [
          0.31440233385500876,
          0.4670681751084293,
          -0.10417996116557367,
          -0.22237711002017113,
          -0.07961058840166793,
          -0.19512051038975745,
          -0.34787479460967086,
          0.3178038180952074,
          -0.07918898250007535,
          -0.2864461672227657,
          0.07009402756682892,
          0.08877410747688001
        ],
        [
          -0.28465296633176196,
          0.18671351558994384,
          -0.15613747452342613,
          -0.19704727771696218,
          -0.1691292618851733,
          -0.30067949814920536,
          -0.37277707461517917,
          0.31539925860625945,
          0.3170757685723468,
          -0.3178007676158991,
          -0.4409806618847124,
          -0.44015715255587756
        ],
        [
          -0.3545693941285351,
          -0.15267305844114804,
          0.35113459402957803,
          0.3145664888055605,
          0.013755865813363044,
          0.05597999109019147,
          0.18482647636766836,
          -0.1500723734796042,
          0.40239856480470704,
          0.3253264984247502,
          -0.1401084197609337,
          0.44158453382949825
        ],
        [
          -0.2863240928272642,
          0.3293026909742879,
          -0.3347938901606443,
          -0.3541278371568572,
          0.20662153758743945,
          0.40928298165309795,
          0.3143116377882382,
          0.21726865382882485,
          -0.15751669568703336,
          0.09654849496145483,
          0.33477494998155627,
          -0.012056795957285156
        ],
        [
          -0.1516799129771213,
          0.30125311814510775,
          -0.19655176819453063,
          0.12692041226725703,
          0.3224820853548697,
          0.08430526088309105,
          0.07663632261839122,
          0.13484685372752878,
          0.024684350464271178,
          0.116194254440779,
          -0.1217758217387409,
          0.06537428605209396
        ],
        [
          0.02050243437484784,
          0.2760931297457142,
          0.19231664292847464,
          -0.4254921244207656,
          -0.25277149598653675,
          0.014248439824465487,
          0.19721350911189744,
          -0.09883462679043176,
          -0.0918212132574258,
          0.32950078724480397,
          0.15219331164160566,
          0.3367888204200938
        ],
        [
          -0.056315791216034174,
          -0.11855880591299664,
          0.33409864628399694,
          -0.03955473985715607,
          -0.03299167694598033,
          -0.034828577094435514,
          0.4544645257670942,
          0.032881588499559244,
          0.29991446662520893,
          0.16183148940302786,
          0.07205894832866594,
          -0.06175135041591482
        ],
        [
          0.04932335287661507,
          -0.4738158777344787,
          -0.028732652625878468,
          -0.11613846386712576,
          -0.11939798083834599,
          0.14061562598435187,
          -0.44034742284352557,
          0.12411486558361326,
          0.34662186446812765,
          -0.12019778151341981,
          -0.41487387306323786,
          0.2455625751166608
        ],
        [
          -0.08107665140924196,
          -0.04639884374145856,
          -0.11755098307659834,
          -0.3244461399111635,
          -0.4242234634502374,
          0.5091557290837644,
          0.42900840774905136,
          -0.3059525490832153,
          0.11784861804127121,
          0.32843039305630944,
          0.23048696710174338,
          -0.14981877293624535
        ],
        [
          -0.12425971201257265,
          0.131105066173642,
          0.09640165446311517,
          0.24122302373024024,
          -0.4017777645776336,
          -0.08882552048567187,
          -0.28785952447071467,
          0.34807376505225707,
          -0.24208649016735212,
          0.15777708242949232,
          -0.20789578169830886,
          -0.0172343022964443
        ],
        [
          -0.11095269103826887,
          0.13811700311935018,
          -0.4661359179900409,
          0.15648103127577534,
          -0.2805334455504545,
          -0.4238099782804914,
          0.44097361984877037,
          -0.054333783419355464,
          0.4161832254989332,
          -0.3624095778673303,
          -0.05409490035024051,
          -0.2145429306455107
        ],
        [
          0.03993160586240569,
          0.17264797675301455,
          0.46919586331544216,
          -0.46053336200054046,
          0.06239758541025526,
          -0.08419420766570039,
          0.06394766775348704,
          0.4790168426766786,
          -0.0445455457116159,
          -0.4824483855243802,
          -0.3050741013835021,
          0.32233046404036875
        ],
        [
          -0.08351991164876794,
          0.1480689265440246,
          -0.35482886915821366,
          0.2780162456563638,
          0.3125637509058201,
          -0.04341073001970259,
          -0.28908810007112534,
          -0.2634407891953076,
          -0.38254503290266995,
          0.15301788736656938,
          -0.3848538292591049,
          -0.17238693774963557
        ],
        [
          -0.3358692906221354,
          -0.22681725128454305,
          -0.22799198636159687,
          0.05743066579977893,
          -0.0730182211379327,
          0.2488159013155651,
          0.3336744154753621,
          0.40566031606966213,
          -0.25265302315773386,
          0.11063149642276622,
          0.374525936760727,
          0.2700865073448189
        ],
        [
          0.16020394774119934,
          -0.19649294702798553,
          -0.15925101152700835,
          -0.19925848314915753,
          0.32012947461167646,
          0.3913005171790555,
          0.1014210703963196,
          -0.3631809242835927,
          0.36406141975292744,
          -0.059922056489673095,
          0.4642575356839789,
          -0.06300737035779261
        ]
      ]
    },
    {
      "activation": 2,
      "biases": [
        0.14296518785811715,
        0.02555654482177589,
        0.19180131830957284,
        0.0,
        0.16267018450669288,
        0.18764479862257694,
        0.0,
        0.15313667996820354,
        0.04335554948816335,
        0.004202693824293568
      ],
      "cols": 10,
      "rows": 12,
      "weights": [
        [
          -0.3865740306948492,
          0.3400576617716528,
          -0.26853080693126613,
          0.17376160683034686,
          -0.06321443452524236,
          -0.3928139659720846,
          -0.25325742210641156,
          -0.4029049613682252,
          -0.5036290830274675,
          -0.43691409487625077
        ],
        [
          0.5019499573109586,
          -0.08340648983617716,
          -0.5162056544657296,
          0.08456968485387137,
          0.2683642473711438,
          -0.24457219321841786,
          -0.29880522564666195,
          0.2431265569811858,
          0.3980276885027747,
          0.0452207754362594
        ],
        [
          0.5124964175753928,
          0.19832820185729233,
          0.3163369553389827,
          -0.1554451952127279,
          0.40165342252928843,
          -0.04565729978726013,
          -0.22720843347691677,
          0.2017864873943741,
          0.3096100420912111,
          0.3287773116239952
        ],
        [
          -0.29515580664087776,
          0.005283943310128884,
          0.15465958499670754,
          -0.35809066911629367,
          0.30496572476085465,
          0.28535065200275045,
          -0.12468040235255604,
          -0.5031702080379774,
          -0.11128686148859632,
          0.35950666005777204
        ],
        [
          -0.5149134115790471,
          0.02763067593014313,
          -0.31206900272826416,
          -0.2171541371625176,
          0.36458940802841333,
          -0.29916868115997475,
          -0.3048552566304692,
          0.2589951454267875,
          0.24020986109042505,
          -0.0070026312961549205
        ],
        [
          0.1918243226711021,
          -0.42720428835130186,
          0.5944572496140831,
          -0.34560383518449195,
          -0.28000633159830085,
          -0.0722372485858644,
          0.4475825236252858,
          -0.22612346333884334,
          0.4420470512317366,
          0.1525155886221475
        ],
        [
          -0.4356642684001189,
          0.5155566091387619,
          -0.36388947231008034,
          -0.28858932794301656,
          -0.36141686503946174,
          -0.5677271207553158,
          0.2758054125641181,
          0.3677020476677659,
          0.5061350664937658,
          0.10347630232001563
        ],
        [
          0.4723356796051924,
          0.0465034688550339,
          -0.3842583147622607,
          0.17897081128534936,
          -0.3741777334110272,
          0.4751783899331769,
          0.12174617681114305,
          0.36896553481949396,
          -0.36819414285034546,
          -0.23083024610227804
        ],
        [
          0.17739733319948298,
          -0.2200029081807251,
          -0.2931375903792445,
          -0.09946964159110214,
          0.05580868054956748,
          -0.3931549041339252,
          0.07922556160894308,
          -0.14194268608680313,
          -0.1560657389446046,
          -0.14912653924736124
        ],
        [
          0.07149095956163302,
          -0.10561809409740057,
          -0.14482257766569553,
          0.40369688878014,
          -0.4409837385167077,
          -0.24391141327361693,
          -0.15005409958163868,
          -0.14585546593124868,
          0.4696277803963248,
          -0.15823587486942142
        ],
        [
          -0.3790435648277317,
          -0.11333135285934837,
          0.29209370199059775,
          0.08289119853409345,
          0.52091240365926,
          -0.018749503992531336,
          0.42598312946069833,
          -0.2976214420429792,
          -0.14393631373470198,
          -0.22816928428184707
        ],
        [
          -0.35817925068229317,
          0.27843535713573114,
          0.3921944184305385,
          -0.1651845068977881,
          0.22357608379918792,
          0.3693469602015102,
          -0.3155326118962032,
          -0.075512449306735,
          -0.04888869917463784,
          0.3294267095156826
        ]
      ]
    }
  ]
}
