{
  "layers": [
    {
      "activation": 2,
      "biases": [
        0.6107365226568521,
        0.5006103872839851,
        0.5367076770735122,
        1.0813487244321645,
        0.7952052114819183,
        0.07325553324508162,
        -0.546801425696705,
        0.0,
        -1.9731820388188932,
        0.0,
        0.9563833589271605,
        -0.03436563143461569,
        -0.7035122470191477,
        -2.0710567371790525,
        0.0
      ],
      "cols": 15,
      "rows": 19,
      "weights": [
        [
          0.42360465611904274,
          -1.525803240364396,
          -0.8715999801888015,
          0.5813172701807753,
          -1.1561038636023957,
          -1.081073316962339,
          1.4779776295255065,
          -0.10378180655117755,
          0.5328884756039252,
          -0.3545393627610452,
          -0.06969700611020824,
          -0.35499133643613595,
          -0.40536247668780795,
          -1.6080566507689487,
          -0.14359524409281696
        ],
        [
          1.840798973393788,
          -1.10452795829466,
          -0.4148462382338428,
          0.1933349517691665,
          -1.513497038262155,
          -1.7128536431769896,
          0.3796124509129753,
          -0.07195004035244254,
          0.018072055780032254,
          -0.2712563688993596,
          1.6828692416853404,
          0.4019986766959809,
          -0.2046629386276749,
          0.347872193388053,
          0.3975413795083432
        ],
        [
          -1.9949134246874416,
          0.18225022258039428,
          -2.7587948445784156,
          0.2800802799881953,
          0.42422072744050227,
          -0.5861622775683594,
          0.30257955579036433,
          -0.26250365371812723,
          -0.3422902762411487,
          -0.2539505299484669,
          -0.4834033621369299,
          0.2154024329784048,
          -0.0765290737458392,
          1.9366854875334154,
          -0.3785395681329091
        ],
        [
          0.9553040720329099,
          1.337963549967282,
          -0.007184477486364168,
          -0.7923883885596265,
          -1.1686971200324505,
          0.5714924021374377,
          -0.7082028475848926,
          -0.1764753019169631,
          0.29236647368030766,
          -0.09286072650939313,
          -0.7575456218022293,
          -0.13557585519090296,
          -1.2148369056803192,
          0.790678472949695,
          -0.36204385374947656
        ],
        [
          -1.1315572792055277,
          -1.1323691112369416,
          1.3000018821691564,
          -0.09367567603316196,
          0.8526019781523898,
          -0.01067724345834721,
          0.4606176798278012,
          -0.2271813470740089,
          -1.807877265751796,
          0.32200723105457624,
          -0.6931138025054624,
          0.06611424229368235,
          0.3327303326015675,
          1.0002159806601334,
          -0.3740288489446893
        ],
        [
          0.9436611399115762,
          1.079587654344587,
          0.9094567891496982,
          1.1730584786631983,
          -0.5458160165105473,
          1.8551934915387607,
          -0.3330300601246873,
          0.32688887151454593,
          1.0154968597424043,
          -0.3870484508004582,
          -0.9733063873459781,
          -0.1263477720587147,
          -0.1183024443387741,
          0.022855107656266374,
          -0.1655109948509114
        ],
        [
          0.7913262344601356,
          -0.36442028814119676,
          0.014315724488841268,
          0.4903250494367393,
          2.029711963264194,
          0.5949986008201077,
          -0.18981392832349814,
          0.1623818694799583,
          1.4333381746273064,
          0.2979017740268596,
          0.6622337172484338,
          -0.043594286542175495,
          -0.532811120844339,
          0.16794892112534263,
          0.05312447077674291
        ],
        [
          -2.6642663694876596,
          -0.6444514529198055,
          1.84690489665376,
          -1.160482489409811,
          -0.7623498623388544,
          0.5098351340459215,
          -0.04988450163000565,
          0.28625259587395824,
          -0.794270961784275,
          0.273703635683231,
          1.188359083474762,
          -0.03699105635846025,
          -2.318987859040384,
          -0.14797864467059996,
          -0.23565724834637156
        ],
        [
          -0.32564326040816094,
          0.8772652661054321,
          0.9452877793988336,
          -1.346480835078894,
          -0.5155885682891878,
          1.0934946289502518,
          0.3212581244121629,
          0.2451221669857246,
          -0.19635093876835633,
          0.21692889605052024,
          1.3151858033237682,
          0.21850718891152487,
          0.28727138987724743,
          -2.0836545517611746,
          -0.13918329264374155
        ],
        [
          1.3608599234823098,
          0.2040721113912092,
          0.604715841603707,
          -1.5009362185920263,
          0.7845259259161483,
          -0.15138322375903945,
          0.4589894439113971,
          -0.4158587149430011,
          -0.867815834065652,
          -0.40538288784418824,
          -2.199877912435589,
          -0.27779592180771207,
          1.0110438516100886,
          -0.8198520116869901,
          -0.22574710297670725
        ],
        [
          0.6203650950919471,
          0.3626074036908272,
          -0.12305776862275832,
          0.127188046840748,
          0.26748377090917647,
          1.1644457237812096,
          0.5022091451995626,
          0.02058937038868452,
          1.5255909725460595,
          -0.34747516739291534,
          0.030098526155630828,
          0.08903669537654339,
          -2.5487991346925103,
          2.374195662386872,
          0.06735595277616468
        ],
        [
          -1.132427318830213,
          -0.1237359194361799,
          -0.8865078442047906,
          -1.0099777221802184,
          0.5317541945122655,
          -0.3209370131579614,
          -0.3049311472042584,
          -0.10368864910380872,
          0.878634170081672,
          -0.0070199255103390035,
          -0.1443653835380321,
          -0.25141185981309033,
          0.09008116365542185,
          1.5525781257660747,
          0.3451343975618787
        ],
        [
          0.5654511547671587,
          0.6542176263552562,
          0.3986596815090547,
          -0.5342155936500266,
          0.22108718685246134,
          -0.5403032805286534,
          -1.6858107139868292,
          -0.18658892325796508,
          0.04074423294376907,
          -0.3603609939148341,
          0.8511247055991319,
          0.08117278635102848,
          1.8877073406710407,
          -0.8126575871395939,
          0.15359974486755004
        ],
        [
          -0.6545069495223548,
          0.3934528838701753,
          0.8110893721838309,
          -0.6410047215386055,
          -0.5371604204855006,
          -0.3849715024234624,
          -0.4047845620938226,
          0.34729900931720037,
          -1.1054192843091066,
          0.18425072813614565,
          1.3265707260018345,
          -0.119985550732276,
          0.3223447035218818,
          -1.0726572315251564,
          -0.2855069419314015
        ],
        [
          2.187760833276773,
          0.8243539442564756,
          0.09191615495456208,
          0.518048601878687,
          0.23889195586146222,
          -0.5287536103083097,
          -2.0097168537372307,
          0.4070033486365598,
          -0.12435286734717427,
          -0.15744605214591553,
          -1.1679733772052197,
          -0.40245359047000334,
          0.7646399039701682,
          -0.3648288906600649,
          -0.31543711068734515
        ],
        [
          -0.41480698935086363,
          -0.9888251629205836,
          -1.5465155404778312,
          1.1638811177318962,
          0.20687715141110738,
          0.5104060574146331,
          0.29034746918891957,
          -0.14298595897254698,
          1.7241566901405934,
          0.33356039653630276,
          1.0935582383227413,
          0.012461142505032127,
          -0.01910263757188927,
          1.5281528778767877,
          -0.09112119216450638
        ],
        [
          0.13391905087361614,
          -0.8332634668055513,
          -0.3225761672219508,
          -0.2899139898374729,
          -0.20870104380954208,
          -0.027391187226276918,
          0.6868044159951338,
          -0.28438825953219243,
          1.1807904999485037,
          -0.29181584570511976,
          -1.5324064228718448,
          0.055755116746652456,
          2.266823551040294,
          0.6188540916198124,
          0.15247920097822457
        ],
        [
          -1.4742474084561317,
          0.9630425533411429,
          -1.0337273136254876,
          0.0440312807501818,
          0.9802624372212817,
          -1.3215913305037652,
          0.07147063631136436,
          0.002560863650931771,
          -1.2307960535000004,
          0.35215956736483317,
          0.2580182725727282,
          -0.03987130446793888,
          -0.47115997570594126,
          -0.05366761492137186,
          0.2053770697618724
        ],
        [
          0.8612879478159617,
          -1.6544753956983191,
          0.9219333221219755,
          0.9136029209698527,
          -1.2402487713569217,
          0.0629972364427161,
          1.848846466265651,
          0.19186480995379676,
          0.7654844648391782,
          -0.23806648564615956,
          0.13933740644641723,
          0.2144930989912301,
          1.1599193528155995,
          0.027399227388081704,
          0.3620603755501518
        ]
      ]
    },
    {
      "activation": 2,
      "biases": [
        -0.06443203765542356,
        -0.8885787907495512,
        0.9702995912083818,
        0.0,
        -0.29229262268768436,
        0.07747656121424937,
        0.2669499346812936,
        1.123583725705399,
        -0.17708782100129042,
        -0.7485759413253937,
        0.0,
        -0.4809940426995733
      ],
      "cols": 12,
      "rows": 15,
      "weights": [
        [
          -0.21728410519164199,
          1.0142320167912893,
          0.7591913313487817,
          0.1316528531542899,
          0.6165316519475172,
          1.1860400997771263,
          -1.0151985249754139,
          0.6534090094462212,
          -0.2896059757640051,
          1.8580278619076012,
          -0.43324645702991466,
          1.1220093558920485
        ],
        [
          0.035629482681319186,
          -0.37646477345264995,
          1.2960862691544177,
          -0.083317628952149,
          0.47412646900368305,
          1.9256319353785167,
          1.0848708949840118,
          2.1731212122834638,
          0.9825936197027315,
          -0.042541840356871294,
          -0.2589751635006696,
          -0.5509921525524164
        ],
        [
          0.13707247345970797,
          -0.144389723694369,
          -1.297478408906357,
          -0.2479630494045945,
          0.981580815076238,
          -1.8813285484502829,
          0.36213391303972675,
          0.09150074088916763,
          -0.26612247499759967,
          -0.25537903947036067,
          0.35377202863223617,
          1.3645311295139322
        ],
        [
          0.049968757399618285,
          -0.4696105448594573,
          0.40543496272207347,
          -0.2990075502994995,
          1.4338404661466182,
          -1.2777039606465144,
          -0.9061252857298975,
          -0.7857038963204307,
          -0.08833517008268353,
          0.054387902755700476,
          -0.4501400360807893,
          -0.0974197400586889
        ],
        [
          -0.0884967852009693,
          -0.021226890834863968,
          -0.468791199447725,
          -0.24770625129067605,
          0.49037277941360086,
          -1.088412145473729,
          -0.5737021443320741,
          -1.1198769076983461,
          0.25370860079601115,
          0.9073280160357379,
          -0.403836755349272,
          -0.5699487046602377
        ],
        [
          -0.08297121491676951,
          -1.819738200012117,
          -0.2595300680576278,
          0.2457621839992386,
          0.4055738021606918,
          0.9132415930827005,
          0.41440132756999376,
          0.2837283460145157,
          0.2326906094563549,
          0.03094903498050549,
          -0.0020568059404747,
          1.1316965491590694
        ],
        [
          -0.3640151500252994,
          -0.17320678141634574,
          -2.1990369257952476,
          0.0786153041835395,
          -0.5822194994160942,
          -0.69819711601996,
          0.38833896636806314,
          -1.1657813070215624,
          0.8711782474776109,
          -0.7600271654929011,
          0.31519709697774884,
          -0.5942591208022494
        ],
        [
          0.043558955641477465,
          0.4124097483442779,
          -0.20987388037478635,
          0.4119501562783582,
          0.2010178840237586,
          -0.11331328641411038,
          0.10794310663495334,
          -0.036373099725308056,
          0.4448788577105849,
          -0.39638702152669036,
          -0.1263957445891468,
          -0.3521809657829034
        ],
        [
          -0.47544408756476186,
          -0.2594842014384449,
          -0.676121170824584,
          -0.3433248083079859,
          -0.47058556048637246,
          0.2624898582696611,
          0.4761329028828366,
          -1.336438745768553,
          -0.7156114466989133,
          -0.15460599433571165,
          -0.1845086254015062,
          -0.8270075636807306
        ],
        [
          0.3967498962338854,
          0.19513258765700978,
          0.04251633129282622,
          -0.2687187500912369,
          -0.2748613670172139,
          0.3468675051251563,
          -0.2388067409527185,
          -0.3404801734989286,
          0.052572851648287476,
          -0.07685031226606319,
          -0.13752935970797164,
          0.15106353507369769
        ],
        [
          -0.31402068847017506,
          0.2755111252007214,
          -0.6573020703699788,
          -0.3007236053355352,
          0.5428187853209234,
          -0.06459009616000552,
          1.0504799152510569,
          0.39544893303372963,
          0.9795277848301855,
          -0.18416541923823815,
          0.3118213473398452,
          -0.9926822333045708
        ],
        [
          0.05831117580779493,
          -0.3625210602329606,
          0.4486125089454442,
          0.13763704710111546,
          0.16511738568150414,
          -0.39189743129786686,
          -0.40903084910750587,
          0.3900291273877617,
          0.020730821972693464,
          0.014848850844103574,
          -0.29407741391204845,
          -0.07419901854653
        ],
        [
          0.4335512310395356,
          -1.378227233664449,
          0.6690065007522006,
          -0.3875374139354523,
          -0.9889033307675551,
          0.01620926974303416,
          0.6218002558488167,
          0.42118031789578664,
          -2.073774084150995,
          0.3377635917554276,
          -0.354099646622576,
          -2.052260621578643
        ],
        [
          -0.2610214968681997,
          -0.654966555299517,
          -0.30155831617489015,
          -0.41645676425328204,
          -0.8733511457964289,
          -0.3829020206482252,
          -0.4109338319449587,
          -1.4373244893164077,
          -0.9659587108382851,
          -0.994454913174245,
          -0.34209031965102255,
          -0.04073180033257267
        ],
        [
          0.23938853736692278,
          0.023469824925532106,
          -0.3728636905184043,
          0.025487900326870486,
          0.19365460041198773,
          0.18778953058126663,
          0.37283504339326407,
          -0.4263215524483626,
          0.3838365803864767,
          -0.41266951605489904,
          -0.2624668073133794,
          -0.08957032334880535
        ]
      ]
    },
    {
      "activation": 2,
      "biases": [
        0.13828601079336736,
        0.6075815652428798,
        -0.1264434745369883,
        1.0236836651002166,
        0.42993049411843265,
        0.468424655185949,
        0.3778918654614732,
        -0.006985765175549975,
        0.0,
        0.25639213832616314
      ],
      "cols": 10,
      "rows": 12,
      "weights": [
        [
          0.285336906269094,
          -0.4349715742268691,
          0.17491270879887366,
          -0.18600011326482474,
          0.11100074477910353,
          0.2722766461773054,
          0.2221962017214172,
          -0.5048893517838118,
          -0.27551260823151846,
          0.21678299421721867
        ],
        [
          0.5884182054744469,
          0.31494636095355083,
          0.4855688723102972,
          0.2015976897928682,
          -1.3008930953838047,
          -1.2183577960855159,
          -1.4987602905249515,
          0.5646260114945337,
          -0.42291343747972066,
          0.9300541188042665
        ],
        [
          0.7291987951196648,
          0.23779676024781363,
          1.4533243239791744,
          -0.5833905110478066,
          0.5972631070735347,
          -0.5502461740881567,
          -0.824630189806758,
          1.2436150486519058,
          -0.3154510505230409,
          1.552925782520485
        ],
        [
          -0.24465963064757917,
          0.34700802053122537,
          -0.007748541777034901,
          0.10942081100393315,
          -0.34788890038423576,
          -0.2925599882077611,
          0.22115491086188663,
          -0.13731505499557145,
          -0.07671635401484142,
          0.2626846707708187
        ],
        [
          1.8711798042038685,
          0.48317198963468166,
          -0.04800652341914944,
          -0.640555183186534,
          0.4409868301337482,
          -0.3448823079076777,
          0.5102916400872298,
          0.6928698075073051,
          -0.5007972314529182,
          -0.17109962578860763
        ],
        [
          -0.1913381735473449,
          1.311536774430732,
          -0.7600884411500164,
          1.1177642192859523,
          -0.6960473084264135,
          -1.1640095737551297,
          0.2678978829380399,
          1.4932554409925203,
          0.4519070526164597,
          -1.167228231119422
        ],
        [
          0.13375406093830758,
          0.047246073867827296,
          1.2055429746322053,
          -0.7013760061376649,
          -1.1846852702694093,
          -0.515782380039954,
          -0.16042423986662288,
          0.6708949885807911,
          -0.15445133416922222,
          0.8680665072003346
        ],
        [
          -0.26806008365708905,
          -0.5680395364776829,
          -0.49091485814981817,
          -0.4882499281041599,
          -0.6395235934472931,
          0.9672005037296255,
          0.5771676355727695,
          -2.4221585850129403,
          -0.3657230826628795,
          -0.181145085627846
        ],
        [
          -2.2606362101373354,
          -0.5824920696248588,
          -0.5652723669818733,
          0.9883764917116066,
          -0.2665579121434857,
          0.9249249960210687,
          0.436492026995086,
          0.04968716949479798,
          -0.025818519325433005,
          0.2964175520709478
        ],
        [
          -0.9543004546168239,
          -1.3228845231381483,
          0.7512005699569133,
          -0.2790038407309306,
          0.7002638279788905,
          0.8339228127250661,
          -0.25718076775561477,
          0.0272014108168186,
          -0.47849097286486947,
          0.40209489069353954
        ],
        [
          0.49265782322813984,
          0.01012822196331227,
          0.10662521474897736,
          -0.4299729443308828,
          -0.4626486458229979,
          0.0969162635731567,
          0.033855196065300804,
          -0.45744339796640726,
          0.3899242133785279,
          -0.2729920925964732
        ],
        [
          -1.0489414702464352,
          0.05191684905677696,
          1.1535198156931346,
          1.3878818579430239,
          0.4998909552504541,
          -0.6970661185633978,
          -2.1115195285034343,
          1.2052606270599735,
          0.47697345662951446,
          -0.45334188965361266
        ]
      ]
    }
  ]
}
