{
  "layers": [
    {
      "activation": 2,
      "biases": [
        -0.8680799589313544,
        -0.9446988443173698,
        -0.023997991385722724,
        0.0,
        -0.7485341704609567,
        1.944891259064717,
        1.1135237893315868,
        0.0,
        0.0,
        0.0,
        -0.05723191820071387,
        -0.6731419367836784,
        0.16768780138397285,
        -0.001819196137262446,
        0.03556882683516931
      ],
      "cols": 15,
      "rows": 19,
      "weights": [
        [
          -0.6833830569617886,
          1.289386104413163,
          -0.5313138266924977,
          0.07409247932700483,
          1.1302067080983669,
          0.7702269075527046,
          0.8799143411227384,
          -0.060364182206026816,
          0.21001015708189905,
          -0.37671902727802914,
          -0.09157668236344804,
          0.20319463008689712,
          1.3623589801399383,
          0.09228047042994789,
          0.3285729276213042
        ],
        [
          0.8755649124479292,
          -2.2320812866518165,
          -0.29139851183502025,
          0.14324933126394573,
          -1.0929848106198368,
          -0.9950706344676459,
          0.07257543382480769,
          0.3821945668091294,
          0.09473027447575746,
          -0.010263520786434653,
          1.5556366831362847,
          0.9664103131825654,
          0.36931632130181946,
          0.3613791782432513,
          0.5731321786006873
        ],
        [
          1.1492491378759624,
          1.8191685497071277,
          -0.1680690952204871,
          -0.3301219414294394,
          1.9283459767535054,
          0.6808818392934033,
          -0.30502697021122793,
          -0.38082912585912476,
          0.013267574209230741,
          -0.2645435221616303,
          0.29643206518823906,
          -1.3455810530545582,
          -0.2186640842945304,
          -0.38361365710896733,
          0.7863650950663195
        ],
        [
          -1.7262839150202196,
          1.8537049961753869,
          0.5814917679337259,
          0.11033534799760793,
          -0.8656090648112963,
          1.5649380059628244,
          -1.7729707250059268,
          -0.19491023908282099,
          0.3435863740869787,
          -0.013654164783344842,
          0.2886336686935112,
          1.1750226693479422,
          0.7490973670394163,
          -0.23708971146570065,
          0.6039017659902345
        ],
        [
          -0.03334084566951454,
          0.31320367237374186,
          -0.0019157875663532806,
          0.15530652590651842,
          0.274027415079662,
          1.4449503530026266,
          -0.25042831852841574,
          -0.04115968984620672,
          0.18117876514390582,
          -0.11966974988889882,
          1.3503387607201296,
          0.5097767383993446,
          1.4326882444588296,
          0.2615973603356205,
          -0.5762901186598066
        ],
        [
          -0.4566025187491948,
          0.6436166409358578,
          -1.4662975544784573,
          -0.16535173416025836,
          -1.4559486862548805,
          1.9163428853652509,
          2.3844952657319007,
          -0.3126017521655143,
          0.3024910631213643,
          0.07282631511123525,
          0.3246391285564014,
          0.8812284194543247,
          0.8194140954404497,
          -0.23581923447950404,
          1.3997203020949875
        ],
        [
          -1.5066456640330752,
          -0.2286636594316477,
          0.09655957001744471,
          0.2093147473319002,
          0.20329196763107912,
          -0.2227345065839873,
          0.2536296929633877,
          -0.3268293895110114,
          0.11042480867740445,
          -0.13297138275540832,
          -0.8365436220308181,
          0.4308430844778048,
          0.6789391242398662,
          0.17900075382656183,
          -1.1864296079850707
        ],
        [
          2.5732896283184306,
          -2.1874898691801268,
          -1.4710302500125128,
          0.1693313120809544,
          0.875719642435895,
          -2.2176969061510485,
          -0.10062951986626939,
          -0.002835886491757741,
          -0.021463929587544405,
          -0.0030158614438020176,
          0.6595914506195426,
          0.035982097797853656,
          -1.691197369332599,
          -0.08730879709621352,
          -2.6550937122351552
        ],
        [
          -0.44523794747235546,
          0.6884193234551239,
          -0.48743181115982104,
          0.3021753828794497,
          0.6845465628969389,
          -1.1327463692496698,
          -0.777566489311043,
          0.22683460678578585,
          -0.31217094904935155,
          -0.2775002609719174,
          -0.7588226384271163,
          2.7167603658285655,
          -0.09270384294930113,
          -0.013243710181482134,
          2.573185383323117
        ],
        [
          -2.0938092248402302,
          -0.7801553509795479,
          -1.1661034168404592,
          -0.1542047146797109,
          -1.0153745132482241,
          1.4248609011161502,
          -3.2336886604165853,
          -0.2733765427620008,
          0.1923341805004299,
          -0.17403829132548346,
          -1.3252494739590535,
          1.3163030587713624,
          1.1038117745815366,
          0.40132772842618125,
          0.08495604397134837
        ],
        [
          0.4058440019356696,
          -0.22018078316592707,
          0.7897318442018405,
          0.19979591394507726,
          0.7845801914652138,
          -0.8045154928539754,
          -0.7661362026042087,
          0.23951352856390382,
          -0.4060863331438927,
          0.40358924391743095,
          -0.7876269279942266,
          2.353740348705877,
          0.9550363855895987,
          -0.11027442157877915,
          1.5676611684529953
        ],
        [
          -0.5141052272135831,
          -1.4781194250104057,
          -0.20343572056323198,
          -0.18177184105925576,
          -0.7972429421143717,
          -1.042017212804047,
          2.1401105121639006,
          0.25874502661482524,
          -0.40792761369035674,
          -0.39241654502814755,
          0.8277710452697807,
          -1.1871829350432765,
          -0.06323140806570098,
          0.005273294225882575,
          0.18433499991963437
        ],
        [
          -0.2331531876042843,
          -0.7892442860256615,
          0.12009946165051862,
          -0.1883013674052635,
          -0.6513263798918059,
          -2.010890123656588,
          1.557524753487294,
          0.01783335798087086,
          -0.26811189269030344,
          -0.02567651614938103,
          0.6345760269986196,
          -0.6649665002519379,
          -0.24961338187616094,
          -0.1959408442979977,
          -0.501621613379019
        ],
        [
          1.2268723047767398,
          -0.26286636090249665,
          1.9302809634726477,
          0.1319639398443828,
          1.2337924334268862,
          -0.7732679859459018,
          0.8040036321292335,
          -0.2147464143030687,
          -0.3353260605999558,
          0.3011709915915658,
          0.009182268382576955,
          0.0036776455723348165,
          0.22212245009425824,
          -0.0799542052403592,
          0.15573976012967447
        ],
        [
          1.0912201317125092,
          0.49866466859662895,
          1.5395870480983858,
          -0.12571613582569785,
          2.236451302016841,
          -1.5886362984636262,
          0.21903067624029396,
          0.11895939892251858,
          0.02218169247705498,
          -0.23164808180944838,
          0.15554204372291852,
          -0.18730987779913824,
          -0.7614754866005035,
          0.2990243081615021,
          0.9140401474365993
        ],
        [
          1.5389591910734421,
          0.29550029741024697,
          -0.24864327738804753,
          0.11155197576264826,
          -0.807664307002794,
          2.030012493626041,
          -0.3802145220857423,
          -0.2493423012287979,
          -0.22690892319889186,
          0.029434660079018894,
          -0.10738674969280279,
          0.07926449795840579,
          -0.42439340272683984,
          -0.3135251499890166,
          0.2173454602611816
        ],
        [
          0.8291041403846894,
          1.5241321297345067,
          0.23275337211423186,
          -0.4010318874813264,
          -0.3995919550993379,
          -2.8129230622171284,
          -1.9162745539090245,
          0.062178726621433686,
          -0.13549136189406766,
          -0.15064974742760256,
          -1.5307956033558454,
          -2.7703451381500996,
          -2.453351919528959,
          -0.2773929963712257,
          -2.3313491594536675
        ],
        [
          0.2541392750893424,
          -0.24607523484272525,
          1.7358835975618931,
          -0.3148324550358743,
          -0.8127937929619301,
          0.9502111814623948,
          0.5429351180731246,
          -0.13119639207072056,
          -0.3479027240515359,
          0.2961989405362883,
          0.05040953375267537,
          -0.5603352403369527,
          1.1217065267061543,
          0.27639787602889354,
          0.9480830907232457
        ],
        [
          -1.9251065148330022,
          -0.6920800236380656,
          0.5903776408000042,
          -0.010690262896416624,
          2.192084570647182,
          0.1767265695494101,
          1.6325274681424151,
          -0.4167972389015437,
          0.36854776680524975,
          0.21989487382365216,
          0.6340234973235354,
          1.170087945220405,
          -2.3902686821604577,
          0.19307671272037447,
          -1.5737968471977961
        ]
      ]
    },
    {
      "activation": 2,
      "biases": [
        -0.5090379089411001,
        -0.34315245387273857,
        0.3420273061488767,
        -0.05430052022775749,
        -0.18285374510598468,
        0.2793615502368695,
        -0.6068657431765577,
        -0.5254464564564691,
        -0.20797258829232554,
        2.0378289488923143,
        -0.7056725347287066,
        -0.04094816541090717
      ],
      "cols": 12,
      "rows": 15,
      "weights": [
        [
          0.11123795201790479,
          -0.8087186640544303,
          -0.7292590025201181,
          -0.2888287787341737,
          -0.2874042823477492,
          -1.4161766896576478,
          -1.3936186744602796,
          -0.7429579399843629,
          -0.757938892365819,
          -1.6533200945434647,
          -0.23778626275176468,
          0.20751907774952427
        ],
        [
          1.3634038074762365,
          0.6958855468426154,
          -0.45716019467835783,
          -0.14790119591338438,
          0.12627758137548215,
          0.40452610706589326,
          0.100499485533943,
          -1.0205658844721226,
          0.5194746162839804,
          -0.8601685328435675,
          -0.9288813934004013,
          0.045009931882355685
        ],
        [
          0.18837145683264905,
          -1.3775201565555337,
          0.11382063638286379,
          0.10893902505553547,
          -0.10704301541708307,
          -1.106622150470763,
          -1.8806311861725338,
          0.6002242561238588,
          0.7052592126519048,
          -0.6621010919275983,
          -0.5844254480176178,
          -0.25352443133632113
        ],
        [
          0.3704712215883616,
          -0.35236779266475676,
          -0.1760470511128281,
          -0.13370530853022805,
          -0.46057401131885917,
          0.10074432788038287,
          0.38551564102621466,
          -0.40563925225455477,
          -0.16268734613883154,
          0.2972567210402184,
          0.45947821169631187,
          -0.09667371500455774
        ],
        [
          -0.5930876037424107,
          -0.2814713978334696,
          -0.6851752830280864,
          -0.4743403598387926,
          -0.42049765293892993,
          -0.7140908588763688,
          0.7073101408786302,
          0.03031459281733677,
          -0.3898511573574043,
          -0.9321109509931538,
          0.23834448794490293,
          -0.3405438520240096
        ],
        [
          -2.512337006273548,
          -1.327064526072517,
          -0.13711873309970898,
          -0.37456343572212936,
          0.10155221667434727,
          0.145580856767531,
          0.636914384176393,
          -1.1170844611935171,
          -1.1335645004602066,
          1.8853142960977725,
          -0.6644325033858856,
          0.41672167246772257
        ],
        [
          0.8629616853552978,
          -0.22474415863086863,
          -1.6424708504605496,
          -0.20759048951842626,
          0.005456205012413157,
          -0.4563008484497605,
          -1.3480327566680885,
          0.43647849447939413,
          -1.6352206338972497,
          0.3115157878628627,
          -0.5612302527610392,
          0.06484291896144032
        ],
        [
          -0.25296928500027505,
          -0.326221343658815,
          -0.01967836028617731,
          -0.3673725800160417,
          -0.039130761878244574,
          -0.2627083645122277,
          -0.05735731316117859,
          0.37143765145934443,
          -0.02355312422038562,
          -0.13938819509593858,
          -0.4001950476823693,
          -0.07748248601806264
        ],
        [
          0.4140045354823198,
          -0.36754607400578015,
          0.191772265521787,
          0.02546099132020241,
          0.40999613662328177,
          -0.1647406282076424,
          -0.45352180305938,
          0.4139437623609169,
          0.12243869244542006,
          0.1830733539874698,
          -0.07846375114069853,
          -0.22885608074890532
        ],
        [
          0.24350097572155843,
          -0.06202536946872501,
          -0.3476465444001867,
          -0.11242375961468684,
          -0.18621669580489372,
          0.23441684067458335,
          0.27015717198220096,
          0.16489616588378822,
          -0.3250338434696071,
          -0.41485125644967485,
          0.2495837515861266,
          0.2767405079665495
        ],
        [
          -1.7269154279179668,
          0.7052188399831963,
          -0.18087814379775144,
          -0.11742528283516143,
          0.3796991037168123,
          -1.1576658337472403,
          0.4683166313220774,
          -1.3538684369975715,
          -1.128063531254949,
          0.23763851375016437,
          0.27435787933054817,
          0.3007152694791493
        ],
        [
          1.0650834325846177,
          0.3032146381149749,
          1.1548440222835672,
          -0.29878968809551515,
          -0.1580071981751959,
          1.395490349154736,
          0.8423840733214617,
          -0.06067488301521847,
          1.2025178115087238,
          -0.8906243632206731,
          1.177227868589792,
          -0.279986267191643
        ],
        [
          -1.9464363211812432,
          0.9718617439304957,
          0.8303571393426611,
          0.431114994756288,
          0.22267642055037246,
          -0.3826877289822566,
          0.09185735150573235,
          -1.76621700337192,
          2.0082857636342393,
          0.3301725072180116,
          -0.28498698823011187,
          -0.09327444788329732
        ],
        [
          -0.10614416011933336,
          -0.3124910085184642,
          -0.08588112030261957,
          -0.19836442126964868,
          -0.29751136682991136,
          0.20439728610315508,
          0.1318505310935212,
          0.04686440082379483,
          -0.032983287913819916,
          0.0357947707674547,
          0.09835288413578733,
          -0.2230058413405109
        ],
        [
          0.724214877535713,
          1.3915652794369775,
          0.05384659576744929,
          -0.07550213613412282,
          -0.22195472708823466,
          0.7776725847772102,
          0.6052538789262988,
          2.056914688913368,
          -0.17930020186493206,
          -0.35051598397521994,
          0.2709083252242202,
          -0.39704397997216206
        ]
      ]
    },
    {
      "activation": 2,
      "biases": [
        0.5399270224745664,
        -0.1702177357102074,
        0.5714728773851596,
        0.5177306781282263,
        0.23958851975090317,
        0.27488815521625243,
        1.0068463626426447,
        0.3668647297047417,
        0.01979160254340179,
        0.3529646771060811
      ],
      "cols": 10,
      "rows": 12,
      "weights": [
        [
          -0.3914850809039271,
          1.917780350543587,
          -0.25004185707179327,
          -0.32426522177496964,
          0.9856609613717762,
          0.46567818703724484,
          -1.5343244599462529,
          0.8852031652661372,
          1.3240473541508742,
          0.5187861389481133
        ],
        [
          -0.1435514112174091,
          -1.3086053333997272,
          -1.285792023887543,
          0.5842400807638829,
          -0.8172094344091323,
          0.3187849761741335,
          -1.2018083611981485,
          -1.1210447007207163,
          -0.995612116007395,
          -0.5733127870720747
        ],
        [
          -0.309130717800493,
          -1.0962033762730055,
          0.3340283718720164,
          -0.6221915098379517,
          1.199087741768157,
          -0.4596491167186713,
          0.046180391511180204,
          -0.8052914075911564,
          0.7978547080328876,
          -1.1482076009512825
        ],
        [
          0.3325312419899062,
          -0.33367099675571277,
          -0.44281313550550244,
          0.2988117127510284,
          0.3337354605549545,
          -0.4327751435874433,
          -0.3577104460885066,
          -0.25276405874504104,
          0.24832947027302166,
          -0.4184869739147008
        ],
        [
          0.0446312987657935,
          -0.3039724604706261,
          -0.3429780853169416,
          -0.30309647312778665,
          -0.4817073907984736,
          0.49301098548164674,
          -0.093541323550868,
          -0.34721969124820906,
          -0.012472315136781232,
          -0.12254260415185343
        ],
        [
          -0.10787699246897563,
          0.045762436841580025,
          -0.30870851272842104,
          0.2623389772399446,
          -1.5040611632619392,
          -0.6094542482401738,
          1.7588511545534995,
          0.6854371042741585,
          -1.1387820570187874,
          0.99968001182792
        ],
        [
          -0.9138465145797354,
          0.4874094384921261,
          1.0060266721455142,
          -1.2953130799694257,
          1.9710301729592454,
          -0.6082543104077486,
          -0.5412901145807526,
          -0.5532350210385684,
          1.109890481701567,
          -0.37294214000347026
        ],
        [
          0.6943679101887487,
          0.0005623524680916957,
          -0.06194968124416001,
          0.3167018765352827,
          0.14903677896590653,
          1.3781113191666003,
          -1.9421857365851412,
          -1.8099695430396496,
          0.09468483304155102,
          -1.7192921759224244
        ],
        [
          1.1364361737176818,
          0.2289066136603759,
          1.8738628714911325,
          0.17297898211317325,
          0.8073131496559468,
          0.4211389778414572,
          -0.23185202646601577,
          2.1876835316030485,
          0.3713632151652631,
          0.6822052464649881
        ],
        [
          -0.4989689382297256,
          1.5218424678558033,
          -1.0055601715214253,
          0.3046783871339222,
          -0.09492195860607058,
          0.8012643294709274,
          -1.7359669271455926,
          -0.9599244244552152,
          1.3892643742832467,
          0.4712007416468705
        ],
        [
          0.8388084869697862,
          0.44960531111624685,
          -0.58090094608394,
          1.1222604630666697,
          -0.7813182630217697,
          0.8076967005695939,
          -0.10081543306682546,
          0.8392099435347588,
          0.14474640313771645,
          0.5109639938432498
        ],
        [
          0.42355241698570884,
          0.022690739093822656,
          -0.14286744702808551,
          0.04891360101630428,
          -0.027453318456442118,
          -0.47494786907292647,
          -0.20699598686083562,
          -0.09953133259975905,
          -0.005661257052961348,
          -0.09527984261810538
        ]
      ]
    }
  ]
}
