{
  "layers": [
    {
      "activation": 2,
      "biases": [
        -0.007885682690013324,
        0.011934255316535377,
        0.0275751773747534,
        0.0,
        0.0,
        0.0502947756154775,
        0.0,
        -0.06507507920007,
        -0.11486685910530031,
        0.0,
        0.0,
        0.11393681230949891,
        0.023256570112960052,
        0.021180104570325566,
        -0.005835749037453399
      ],
      "cols": 15,
      "rows": 19,
      "weights": [
        [
          -0.30972087521904157,
          -0.32829277488869313,
          -0.4307199687243709,
          -0.02682259547342763,
          0.1466301040424606,
          0.034710606959494385,
          0.0409466693366433,
          0.09348092888375147,
          -0.2217683122684769,
          0.005729906599978553,
          0.3985319230781381,
          0.24848720159465837,
          0.3798717754363308,
          0.11871822329429917,
          -0.12238573704568265
        ],
        [
          0.24575227350914736,
          -0.01770930720651115,
          -0.21748491447694107,
          0.3628809519268718,
          0.19926676914330882,
          0.21294496050675213,
          0.09303824959961328,
          -0.1426789456823327,
          -0.08843046185002916,
          -0.31678557209320335,
          0.3063332514909562,
          0.03347168692381859,
          0.13573320274063552,
          0.18233729433577126,
          0.3032498701930016
        ],
        [
          0.36869742703171743,
          0.34967172738982644,
          -0.37635345521077845,
          0.16028105933985135,
          0.16674003020265818,
          0.4183539504425065,
          0.14111919502544865,
          0.30780110820470613,
          0.010792845130097269,
          -0.0701746791694067,
          -0.006855145685370899,
          0.3377554688597282,
          -0.24491828509331734,
          0.34762512054278527,
          0.25560955825992243
        ],
        [
          -0.28053616905806306,
          -0.25370656923309587,
          0.24685885901211269,
          0.2649946886025229,
          -0.40092857438863605,
          -0.030658400913293492,
          -0.004095533927185218,
          0.20223191700115473,
          0.18166782428140862,
          0.1701099849771363,
          -0.11141062692613483,
          -0.19492414872032618,
          0.19518140723232918,
          0.0009757109294394749,
          -0.059402100647763426
        ],
        [
          0.08500454003511504,
          -0.2506610737433128,
          0.07300105143478441,
          0.034896083114453504,
          -0.25878540702242875,
          0.011576838516076951,
          0.06014141997643457,
          -0.01621672756129149,
          0.29397052195322093,
          -0.05335805766134536,
          0.25617763151228623,
          0.08596884062509302,
          0.21124338574407117,
          -0.32023551584636156,
          -0.3602668115262
        ],
        [
          -0.3703665958161056,
          -0.3495272173688085,
          0.2863476480083776,
          0.061169713689425254,
          0.14366118184423077,
          0.28699257145474844,
          0.07468089251868791,
          -0.026095658716563223,
          0.0936106283686139,
          -0.3295653194999176,
          -0.28380555913552374,
          -0.32694834414196955,
          0.3195534215619233,
          -0.05912514569319294,
          -0.003537912512378055
        ],
        [
          -0.13204636363454275,
          0.17583422569582263,
          -0.12476683760722954,
          -0.28631573200058785,
          -0.1294936419129351,
          0.36263560912843673,
          -0.04930676111955092,
          0.1039999723998988,
          0.21014830633524886,
          0.2236315628864364,
          -0.28601017454036104,
          0.3261718846814159,
          -0.36179021030856334,
          -0.06367095470958424,
          -0.0188828929690683
        ],
        [
          -0.1783291176635645,
          0.17550436465622574,
          -0.20748628831831026,
          0.37408505358321653,
          -0.3643890511727046,
          0.10979085839152475,
          -0.29303642532212837,
          0.1403790494691786,
          -0.036400818342941614,
          -0.3361801324529914,
          -0.37158706530162927,
          0.07982121789174387,
          0.18132767866134197,
          0.17169984129310562,
          -0.04547641503495457
        ],
        [
          0.0041631249583229035,
          -0.004401364250883312,
          0.06145662526480108,
          0.2699743041620877,
          -0.3018635715479514,
          0.2228593560611731,
          0.0019111543048798904,
          -0.09904153564547698,
          -0.28733268082818675,
          -0.04934708440702895,
          -0.2946877763653669,
          0.3915351998578973,
          0.31026146223806944,
          -0.28940255191186925,
          -0.0033179790088556154
        ],
        [
          0.2697346632146209,
          -0.19933604162996096,
          -0.03462067886160753,
          -0.2895102489606592,
          0.35380946067117114,
          0.049658568786082234,
          0.19438448627754443,
          -0.03837806136522153,
          -0.35711172250683687,
          -0.13058186754825676,
          -0.02680016565210362,
          -0.11317519841369898,
          -0.11588247645576023,
          -0.3355286024108943,
          0.1975896448528627
        ],
        [
          0.27683056290297353,
          0.1847769807227847,
          -0.048141553700540185,
          -0.38557431807635933,
          -0.23385534977901645,
          0.04147281772387371,
          -0.3934872042687186,
          -0.050207870323788414,
          0.27729517355347055,
          -0.17050019485454299,
          -0.10030909149727821,
          0.39996293092199287,
          -0.34817380340162635,
          -0.28413843565140606,
          0.35760136417531935
        ],
        [
          0.18629236796933038,
          -0.09569810394322074,
          0.4381067470342612,
          -0.1313910445476081,
          -0.1007238861114274,
          -0.24764103821660738,
          -0.37671731367426503,
          0.15731370728706084,
          -0.2675918682711216,
          0.21644505142058656,
          0.32237639177451366,
          0.14785779174049585,
          -0.2876680806557895,
          0.0008867929278130438,
          -0.17123059413247735
        ],
        [
          -0.1473111474517674,
          -0.24866885301984878,
          0.4181153175125735,
          -0.327649216283893,
          0.07226771510394367,
          0.4334402295655016,
          0.018537017676662708,
          0.006162998989963127,
          0.0683790592153891,
          -0.13567907897051554,
          -0.06374058373000824,
          -0.023774327547129288,
          -0.06931441834092562,
          0.1883848353908181,
          -0.299364870601522
        ],
        [
          0.24980202520806616,
          -0.21778295937268144,
          0.3191822445881125,
          -0.3389756516434758,
          -0.27951315071944677,
          0.08793786797960608,
          -0.1506906129650388,
          -0.20546257509780105,
          -0.4740425177140381,
          -0.14219142624317135,
          -0.07372646882111047,
          0.32312623455918693,
          -0.3379238807355151,
          -0.20893560404037909,
          -0.33079243660189694
        ],
        [
          0.10678579581620938,
          -0.04811332297208889,
          0.3291322766156424,
          0.01577270446267038,
          -0.3979542613807566,
          -0.17003657429171362,
          -0.39062814715455757,
          0.0680328850095532,
          0.30829457132352145,
          -0.373365483585079,
          0.1271128883853034,
          0.07794182843708285,
          0.15185245528544516,
          -0.07990701506985036,
          -0.35497258465107195
        ],
        [
          -0.38545424036555387,
          0.008152163776896653,
          -0.17632931721170858,
          -0.40126002760985496,
          0.16057834181532607,
          -0.03165901072610175,
          -0.21412326972769755,
          -0.15021009873536828,
          -0.2560180304281763,
          0.061485948700777525,
          -0.1610371181436195,
          0.31097244969922494,
          0.08687745407669847,
          0.41999803373169997,
          0.38357372368223736
        ],
        [
          -0.3897947812786807,
          0.31433209280661356,
          -0.3018844595710782,
          0.05165665686871567,
          0.220412951405494,
          0.10817818074907033,
          -0.330034378233263,
          0.1891932990980286,
          0.21433394670373776,
          -0.01236219870267987,
          -0.3695542472812844,
          -0.10830323956484215,
          0.2966020623391509,
          0.1108764390840342,
          -0.090543314233754
        ],
        [
          -0.2917147435482278,
          0.4717440881229132,
          0.3903637719795962,
          0.29983591194441694,
          0.17953998444060792,
          0.027927391847334775,
          -0.09832611469874303,
          0.09355900458962006,
          -0.21130414357990016,
          -0.2499651429892573,
          0.264162674898762,
          -0.0664130883242167,
          0.33638089718779746,
          0.1445533098016173,
          -0.2398999794755398
        ],
        [
          0.22092806466629336,
          -0.13870556543263166,
          0.12008019791205475,
          0.014205649813911807,
          -0.3551186038690193,
          -0.2551540067252812,
          0.04354542808287,
          0.3549133781030523,
          0.3717060630948043,
          -0.3239061364180296,
          0.3340986210906185,
          0.24653170379607062,
          0.24461394587142196,
          0.3561193944409117,
          0.3884119860450215
        ]
      ]
    },
    {
      "activation": 2,
      "biases": [
        -0.05303870810903482,
        0.012478628429509853,
        0.19268090461719614,
        0.0,
        -0.0006215251868809469,
        0.007396207244498113,
        -0.024886448719388665,
        0.007698690811017943,
        -0.15305863273853432,
        -0.024687306501051647,
        0.0,
        0.05721493582129952
      ],
      "cols": 12,
      "rows": 15,
      "weights": [
        [
          0.3143963114930724,
          0.46828703040239483,
          -0.10359894673842118,
          -0.22237711002017113,
          -0.07961058840166793,
          -0.1951720763196724,
          -0.3478730609320996,
          0.3145163174568405,
          -0.07953172555623172,
          -0.2864635620045775,
          0.07009402756682892,
          0.09239330045110991
        ],
        [
          -0.28465522511421004,
          0.1367014222201392,
          -0.2192112956367634,
          -0.19704727771696218,
          -0.1691292618851733,
          -0.30057508988497667,
          -0.37286490569565484,
          0.33182373815008465,
          0.31720371768764305,
          -0.3177863111858323,
          -0.4409806618847124,
          -0.4875535139988963
        ],
        [
          -0.35576698522384215,
          -0.1850160788407719,
          0.3784347252879582,
          0.3145664888055605,
          0.01367861360595979,
          -0.1562838753338106,
          0.1509070348431018,
          0.1444505990192285,
          0.39335847570193466,
          0.3119853608886127,
          -0.1401084197609337,
          0.24880699934202943
        ],
        [
          -0.2863240928272642,
          0.3293026909742879,
          -0.3347938901606443,
          -0.3541278371568572,
          0.20662153758743945,
          0.40928298165309795,
          0.3143116377882382,
          0.21726865382882485,
          -0.15751669568703336,
          0.09654849496145483,
          0.33477494998155627,
          -0.012056795957285156
        ],
        [
          -0.1516799129771213,
          0.30125311814510775,
          -0.19655176819453063,
          0.12692041226725703,
          0.3224820853548697,
          0.08430526088309105,
          0.07663632261839122,
          0.13484685372752878,
          0.024684350464271178,
          0.116194254440779,
          -0.1217758217387409,
          0.06537428605209396
        ],
        [
          0.022587520155677297,
          0.3407302407542967,
          0.1806294383368414,
          -0.4254921244207656,
          -0.25336248862881805,
          -0.12374777544674676,
          0.1259921974214945,
          -0.024759813325453305,
          -0.10202156547112474,
          0.29690176505808424,
          0.15219331164160566,
          0.22191734211090475
        ],
        [
          -0.056315791216034174,
          -0.11855880591299664,
          0.33409864628399694,
          -0.03955473985715607,
          -0.03299167694598033,
          -0.034828577094435514,
          0.4544645257670942,
          0.032881588499559244,
          0.29991446662520893,
          0.16183148940302786,
          0.07205894832866594,
          -0.06175135041591482
        ],
        [
          0.05013025208697191,
          -0.4440295847333935,
          -0.06585363831484656,
          -0.11613846386712576,
          -0.11959886990741436,
          0.1362525902872645,
          -0.46883497897520904,
          0.10734918704637073,
          0.33918913705963244,
          -0.11786878286438011,
          -0.41487387306323786,
          0.26465084002553735
        ],
        [
          -0.07929971146321589,
          -0.0016174231967451143,
          -0.2992048770104636,
          -0.3244461399111635,
          -0.4242234634502374,
          0.4186031221148609,
          0.38798569568375346,
          -0.15066427924703288,
          0.13234139417335986,
          0.3397852370514346,
          0.23048696710174338,
          -0.2656405839492626
        ],
        [
          -0.12425971201257265,
          0.131105066173642,
          0.09640165446311517,
          0.24122302373024024,
          -0.4017777645776336,
          -0.08882552048567187,
          -0.28785952447071467,
          0.34807376505225707,
          -0.24208649016735212,
          0.15777708242949232,
          -0.20789578169830886,
          -0.0172343022964443
        ],
        [
          -0.11095269103826887,
          0.13811700311935018,
          -0.4661359179900409,
          0.15648103127577534,
          -0.2805334455504545,
          -0.4238099782804914,
          0.44097361984877037,
          -0.054333783419355464,
          0.4161832254989332,
          -0.3624095778673303,
          -0.05409490035024051,
          -0.2145429306455107
        ],
        [
          0.04605908046865483,
          0.17893823962896027,
          0.4114759832162242,
          -0.46053336200054046,
          0.0616542815866639,
          -0.0379183453456258,
          -0.00046822127453861125,
          0.3180265738624159,
          -0.052926320079937604,
          -0.49224292086179056,
          -0.3050741013835021,
          0.44489562290797713
        ],
        [
          -0.0790739502024851,
          0.15795749255390887,
          -0.34753880948196664,
          0.2780162456563638,
          0.31213111167764623,
          0.04287802940220003,
          -0.21381001789920162,
          -0.26427167205610486,
          -0.38329650221975003,
          0.1600881972391552,
          -0.3848538292591049,
          -0.22131267138999744
        ],
        [
          -0.3342097915844419,
          -0.056369296747680916,
          -0.18076005755088856,
          0.05743066579977893,
          -0.07310932277495436,
          0.21882703073509854,
          0.2044578870998829,
          0.35925792924707145,
          -0.2432719547116718,
          0.11941322483918838,
          0.374525936760727,
          0.35556371581807533
        ],
        [
          0.16025113232922886,
          -0.09735748459179538,
          -0.1425668585980881,
          -0.19925848314915753,
          0.32012947461167646,
          0.36167709709949974,
          0.08504402191391985,
          -0.3674532829621052,
          0.364688532931526,
          -0.04294921823824654,
          0.4642575356839789,
          -0.037020511833058455
        ]
      ]
    },
    {
      "activation": 2,
      "biases": [
        0.11516435027994595,
        -0.008330893904559003,
        0.2451355166001152,
        0.0,
        0.0077765335272932,
        0.15489554473807318,
        0.0,
        0.14499136662232412,
        0.12174693369918116,
        0.02938793802327527
      ],
      "cols": 10,
      "rows": 12,
      "weights": [
        [
          -0.38690330024088143,
          0.3408546225329582,
          -0.2682293915742725,
          0.17376160683034686,
          -0.06306595106035544,
          -0.39245664586014717,
          -0.25325742210641156,
          -0.40254083802739693,
          -0.503618405648374,
          -0.43589363550547977
        ],
        [
          0.42458172028241764,
          -0.0662135510903838,
          -0.43202912192471327,
          0.08456968485387137,
          0.17379855933932992,
          -0.32003963518983897,
          -0.29880522564666195,
          0.37823787336671677,
          0.3972989315184314,
          -0.0666058494652353
        ],
        [
          0.4265700717924173,
          0.14374192447810727,
          0.4508745231187708,
          -0.1554451952127279,
          0.28269977695437715,
          -0.03593525238075275,
          -0.22720843347691677,
          0.39762123642802677,
          0.3638429306702051,
          0.265021030543514
        ],
        [
          -0.29515580664087776,
          0.005283943310128884,
          0.15465958499670754,
          -0.35809066911629367,
          0.30496572476085465,
          0.28535065200275045,
          -0.12468040235255604,
          -0.5031702080379774,
          -0.11128686148859632,
          0.35950666005777204
        ],
        [
          -0.5149145089644505,
          0.027638092358704937,
          -0.31206869200015425,
          -0.2171541371625176,
          0.3645859494102379,
          -0.2991690949501148,
          -0.3048552566304692,
          0.25898809615063845,
          0.24021044835695268,
          -0.007008213341804746
        ],
        [
          0.30594427000353236,
          -0.40046615095985744,
          0.36549049131596284,
          -0.34560383518449195,
          -0.22369556048192288,
          -0.06483465617807456,
          0.4475825236252858,
          -0.4021271087389404,
          0.3458505484527247,
          0.33454703080239967
        ],
        [
          -0.4682328648838694,
          0.4218795381232735,
          -0.49862996131708504,
          -0.28858932794301656,
          -0.2448136409192462,
          -0.48688942602544766,
          0.2758054125641181,
          0.41265685794463014,
          0.3950309712950997,
          0.14995996708166265
        ],
        [
          0.46585164523377737,
          0.13375735442034978,
          -0.41029579130230387,
          0.17897081128534936,
          -0.3082033491737949,
          0.4843974863294535,
          0.12174617681114305,
          0.12056026553756188,
          -0.2634311424451437,
          -0.07441502557700959
        ],
        [
          0.17569249108745252,
          -0.22092242897252387,
          -0.3177586999979015,
          -0.09946964159110214,
          0.055700439589322324,
          -0.38224483614213206,
          0.07922556160894308,
          -0.12691332355323975,
          -0.14917152703764558,
          -0.14203190528051557
        ],
        [
          0.0799593225945033,
          -0.11611248157763028,
          -0.14521011884145144,
          0.40369688878014,
          -0.44325921081110614,
          -0.24204455501010969,
          -0.15005409958163868,
          -0.12278413981621368,
          0.46246771357765576,
          -0.15528341597316486
        ],
        [
          -0.3790435648277317,
          -0.11333135285934837,
          0.29209370199059775,
          0.08289119853409345,
          0.52091240365926,
          -0.018749503992531336,
          0.42598312946069833,
          -0.2976214420429792,
          -0.14393631373470198,
          -0.22816928428184707
        ],
        [
          -0.3425801683620226,
          0.3592006581758479,
          0.2640883010757618,
          -0.1651845068977881,
          0.32622819757903526,
          0.3441057944872081,
          -0.3155326118962032,
          -0.09308897340583222,
          0.002473407708705939,
          0.41545146902193836
        ]
      ]
    }
  ]
}
