{
  "labels": {
    "labels": [
      "ambient",
      "freeImpro",
      "glitch",
      "hipHop",
      "metal",
      "rock"
    ],
    "rows": 6
  },
  "mlp": {
    "layers": [
      {
        "activation": 1,
        "biases": [
          -1.8013897775209444,
          -3.23693259512884,
          -2.134800978280163,
          5.101151950304093,
          -2.0994891991965674,
          0.9003123480510067,
          -0.13139285833789427,
          0.274377978774455,
          0.33943731729291593,
          1.4380939451565342,
          6.492655122838898
        ],
        "cols": 11,
        "rows": 26,
        "weights": [
          [
            -0.412938284787635,
            -0.9708862579911725,
            0.07642874297394846,
            -0.17155855742235404,
            -0.20628935116840302,
            0.8382947677809581,
            -0.559905866627955,
            0.7477020693827262,
            -0.3357463074908446,
            -0.19971437968526928,
            1.311580736725832
          ],
          [
            0.5525889688345301,
            0.6763343688141722,
            -0.050246031013010305,
            -0.2363565038121471,
            1.5822474040762522,
            0.4748013673127639,
            0.8344823927391354,
            -0.05839762854681299,
            0.26593665437824127,
            0.16153029731272137,
            2.6925659883248754
          ],
          [
            0.7820063858282661,
            0.13245782349169066,
            -2.086358011055675,
            -0.4754203798999633,
            -0.6482456282315268,
            -2.1575051892854096,
            -1.01992114597666,
            1.0396131080331725,
            -0.6739337603083301,
            -0.8392505281206485,
            -0.05398338402108382
          ],
          [
            0.3642707298083514,
            -1.1310938355936586,
            -1.4155786302813453,
            -4.323574118291429,
            0.3531639629834242,
            -2.2091934929012975,
            -0.3693232238335839,
            0.46608707263351734,
            0.8135358683768414,
            2.237017672465034,
            -2.5448025166176866
          ],
          [
            -2.999626586417526,
            -3.2497942589504274,
            -0.446443838212466,
            -0.37260112986887484,
            1.5861418436903867,
            0.7803296798628093,
            -0.20495904362390976,
            -0.41897524299078603,
            -0.7345550473457477,
            -0.6419204432476899,
            -1.4744890420734362
          ],
          [
            -1.8160098725339937,
            2.6300120943884835,
            0.5102029048292136,
            0.17278393648006368,
            -0.11206921179122696,
            1.0253840837991288,
            -0.4389661922448049,
            -0.2282007836401418,
            0.6692478634137291,
            1.5757115298418165,
            -0.2800742940334953
          ],
          [
            0.920561443754954,
            -1.5510069426124713,
            -1.4244003627637825,
            3.8205871735355275,
            1.2882991061741207,
            -1.9952560796765226,
            -0.6176249191663479,
            0.10874617837746671,
            -1.002546527450161,
            -1.0597849146672993,
            0.3941357370631426
          ],
          [
            1.2941041630239842,
            3.3627554459157105,
            -0.07434363855617665,
            2.6308555577992747,
            -0.22639747620433628,
            0.008477025093461295,
            -0.19730458054085906,
            -0.08798992618361079,
            0.5610775565400838,
            2.4296545541968593,
            -2.4534501261975006
          ],
          [
            -2.456704612327429,
            0.5762489560902052,
            -0.41426835553872426,
            2.5772686555276323,
            -2.1326571326336263,
            -0.9201320702617494,
            -0.22203027146718946,
            -0.09915198959188064,
            0.7933610212546708,
            0.7967628371534666,
            -1.3147267568809453
          ],
          [
            4.499579693046476,
            1.4584492919940941,
            -0.9183176154172072,
            -1.9677838363280375,
            0.060567848413851294,
            2.6634243090073433,
            -0.22327556625542386,
            -0.4714872747998281,
            0.6587874017223613,
            0.5197330345394253,
            1.1074718055370645
          ],
          [
            4.234523214959481,
            1.4125353469103972,
            -0.9743263513394039,
            -0.31030744442080915,
            -1.6168510608162845,
            -2.1336036628612938,
            0.40514921266511794,
            0.45369011362514594,
            1.0661355748119299,
            0.9077535663969436,
            0.4185310199868193
          ],
          [
            -3.4927959817988827,
            2.5331650956824254,
            2.1194238739863445,
            0.8252172835247515,
            3.2754710377078378,
            2.4055107145342483,
            -0.08805757746593094,
            0.7395957576764637,
            -0.23928205531327004,
            -0.3305748333132706,
            -0.2465271362487433
          ],
          [
            2.5543899813830735,
            0.19521821400385436,
            2.1886136416294186,
            4.35813594259599,
            -0.8165228345141522,
            -1.3307709643513674,
            0.5710090716566646,
            0.006094206933814238,
            0.6895007637645105,
            2.135703839682581,
            1.75761811511924
          ],
          [
            -0.4392581363655833,
            0.5913690242439097,
            -0.47213256487683064,
            0.264334407291119,
            0.42201138423768136,
            -0.597313745405603,
            0.018453268455853513,
            -1.1835851728041067,
            0.4727176183927281,
            0.34243330672480765,
            0.7165161179950985
          ],
          [
            0.9820060437667938,
            0.29565479951664986,
            0.23032809588241357,
            1.6932090340866957,
            1.0824162978304495,
            1.8475809769021592,
            0.2649048570210075,
            -0.14197544354358232,
            -0.37473202011728185,
            0.6401982923672241,
            -2.6568454362654315
          ],
          [
            -1.8836611506356544,
            0.42202499389834197,
            -0.07182006159992521,
            -2.0895774708650086,
            0.5505047498885852,
            -0.9340384129687279,
            -0.6342569652972417,
            0.9995152827433624,
            -0.13508214924260126,
            -2.0505924735152745,
            0.05456420397846066
          ],
          [
            -0.16894896205307228,
            0.5553869921627671,
            0.431380879408538,
            -0.11120183029900382,
            -0.23108999055769688,
            -0.9459287069526423,
            -0.38700070520194885,
            -0.21173525774101865,
            -1.0742611991139008,
            0.7313464566753676,
            -0.3630125193595918
          ],
          [
            -0.9777443933960948,
            -0.0734238532572311,
            0.7040628374814258,
            -0.4096724882765358,
            -2.9638433926701064,
            -3.2583330241615402,
            0.6378055154617365,
            0.757289671631564,
            0.6360841088058988,
            0.4626805132909421,
            1.2267074957299753
          ],
          [
            -0.033981577065162076,
            -0.6711319711112071,
            1.5562918559903847,
            1.3773321481417047,
            -0.8079879188359226,
            2.59084520786007,
            -0.4636479706688912,
            -0.02113677259181636,
            1.128689363491856,
            0.7765101672894967,
            0.1672352211785628
          ],
          [
            0.9712550846597408,
            0.15621673933823071,
            -0.5828731231903993,
            1.3291069357367191,
            -0.6716630872274104,
            -2.5607823745820206,
            -0.17407861087746557,
            -0.5510905650182313,
            -1.4423018273994963,
            0.9840193818737463,
            -2.2780037794027406
          ],
          [
            -1.574098295540732,
            2.909514388296451,
            0.9546982176780557,
            0.9504523007891454,
            -0.43524456618710594,
            1.556339746884707,
            -0.20998570160037383,
            0.3213895999897888,
            0.10312021739337303,
            -2.248613976605866,
            2.0589510645707625
          ],
          [
            0.30540945313899415,
            4.6607109103242435,
            0.27015229302562754,
            0.23282154396166865,
            -0.3839418661531369,
            0.10424755521608726,
            -0.18156220887306732,
            0.43109374375728365,
            -0.2572902160635819,
            1.3448149035989403,
            -0.40629673767053237
          ],
          [
            1.1018569185590383,
            0.7338857645608906,
            1.1145289388390716,
            -0.10971896678906336,
            1.3723563703204078,
            -0.7178966523505457,
            -0.09131034767076182,
            -0.14987923898686267,
            -0.39721873221167253,
            -1.1527586414949667,
            1.5589749465908405
          ],
          [
            2.3965488341174788,
            0.3982279699161839,
            1.0606477742623401,
            4.077632235280583,
            1.143091578073965,
            -0.7730238628911744,
            0.35037706589566464,
            0.46503130211359633,
            -0.3701531908471156,
            -1.545799151771927,
            0.5894796810197318
          ],
          [
            -1.0307540232817294,
            1.6605330399387919,
            0.4702936549003041,
            -0.9167143279127318,
            -0.7119173463178655,
            1.327180813423824,
            -0.09957676506445817,
            0.7451538741884944,
            -0.4107104761492495,
            -3.573121423567093,
            0.3244773335906938
          ],
          [
            -0.6167340599013179,
            -1.7645060979689065,
            -2.6807857175873906,
            -1.9026044592754032,
            -0.035069664919391466,
            1.7372712333504334,
            0.8595215118800953,
            -0.9023603806273377,
            0.3591450735567748,
            -2.00278323355651,
            1.6149806110478775
          ]
        ]
      },
      {
        "activation": 1,
        "biases": [
          0.13788266937280114,
          -0.3751801101525667,
          -0.9846706600590341,
          0.2052159167878689,
          0.5730570278047371,
          0.54323075826092,
          1.6186382937341288,
          -0.6869810440600258
        ],
        "cols": 8,
        "rows": 11,
        "weights": [
          [
            -4.511143638350149,
            -2.7826124147753672,
            2.2519543553208154,
            2.425801753768798,
            0.7562734766195097,
            -0.22238476967179346,
            0.08196792956754441,
            -2.6435138570045766
          ],
          [
            -0.9442041047546852,
            0.17770506175532633,
            1.917212609161268,
            2.5544214859517367,
            -1.048101290185171,
            7.118079085621611,
            1.7347007601005606,
            -2.1927300768011464
          ],
          [
            -4.715751762282371,
            -4.054002765194076,
            5.538731239597343,
            2.6703450245976326,
            2.0159401506736323,
            2.572761107303405,
            5.924244854056298,
            -1.351270187005931
          ],
          [
            1.335150972120012,
            -3.045763365415274,
            -6.830017419555863,
            1.086231054001066,
            1.642837628984294,
            -2.7374182455449274,
            -5.858893761956065,
            -3.1162437400585854
          ],
          [
            1.874501055415292,
            3.4232247583514654,
            4.681854879658209,
            -0.1447921139557525,
            -1.604685131853301,
            5.6329724049496095,
            -0.21493857627027615,
            0.8858450074492838
          ],
          [
            -1.4848672136419858,
            7.826450045636864,
            -0.04651629024406471,
            -6.4831324746070615,
            -1.6557859834487834,
            3.4148133675991073,
            1.9609685620545887,
            -4.175708725788862
          ],
          [
            2.424227282367631,
            2.476592990150733,
            -3.416438617656851,
            -3.3648526450254446,
            4.1184194639952745,
            -0.6084705443808244,
            -3.163121020065738,
            -0.7429404436097563
          ],
          [
            -0.01757534211873737,
            -2.6288162716631986,
            4.201616050530906,
            2.124693964281025,
            -2.7736387183456337,
            -3.01202196822863,
            3.8168148526306362,
            3.757934785855611
          ],
          [
            1.4950171610007976,
            6.487708503783115,
            -1.4753071694676048,
            -2.404956868663145,
            -0.48100891789274725,
            -0.613053868872035,
            -0.15992909828279234,
            -0.034108185749498324
          ],
          [
            4.697755837097381,
            1.760359591368745,
            -3.0396191188593993,
            -3.164370069451218,
            -4.174948707300894,
            -2.095775909975776,
            -2.2758531238680937,
            5.270670850672536
          ],
          [
            -5.988017099204437,
            -0.27969182311355284,
            -2.1506565094728547,
            -2.0261178845635457,
            1.565908060593229,
            0.8690043243598091,
            -1.3180764621894647,
            -7.7015426194303425
          ]
        ]
      },
      {
        "activation": 1,
        "biases": [
          -5.507175287088834,
          -1.9815484690783676,
          -2.3433183114364633,
          -5.4842002503438225,
          -4.009207918540111,
          -0.12889952411853467
        ],
        "cols": 6,
        "rows": 8,
        "weights": [
          [
            -4.986323341081697,
            -2.742453309136417,
            1.151432075674181,
            -3.8572603014251947,
            6.811482269969156,
            -5.754226631438001
          ],
          [
            3.238656303959368,
            -5.360536415368764,
            7.711212027935077,
            -9.68713078403506,
            -0.30897768009541055,
            -6.117179621857466
          ],
          [
            6.5179008278255575,
            -4.50477945392983,
            -7.326364234108794,
            2.536981181958249,
            0.1419383836762509,
            -3.3024638883363857
          ],
          [
            -8.061031261461384,
            -6.762841362186432,
            -2.255421669816552,
            4.737106288068902,
            -0.8123437391568921,
            3.5846380168575998
          ],
          [
            -0.49527865054682074,
            3.7952481677405006,
            -1.288039984697158,
            -6.893194758760509,
            -5.643471574004166,
            4.982427669701055
          ],
          [
            -5.670821651466609,
            -0.19859436347590692,
            4.534430433948916,
            6.548218821921455,
            -6.9470788366643585,
            -6.8277121377913375
          ],
          [
            5.6276714887691375,
            4.034238877366332,
            -7.097906045380209,
            2.1140681244482926,
            2.8759404967184192,
            -4.454437566447901
          ],
          [
            -4.291473395885924,
            -1.488230513460678,
            -2.7372142986420918,
            -7.335342707542675,
            7.114038722523912,
            -4.437864822976545
          ]
        ]
      }
    ]
  }
}
